{"fc1.weight": [[-0.8001765608787537, -1.306024432182312, 0.3801141083240509, 0.2668870687484741, 0.08658754080533981, -0.04517870023846626], [-0.09584703296422958, 0.8922256231307983, 0.13313186168670654, -0.37535229325294495, -0.09481706470251083, 0.06620081514120102], [-1.0170255899429321, -0.24417611956596375, 0.025437774136662483, -0.11719561368227005, 0.22836196422576904, 0.5614555478096008], [-0.17769691348075867, 0.023213764652609825, 0.35145607590675354, -0.2019173949956894, 0.21955490112304688, -0.24886390566825867], [-0.9896997213363647, -0.093074731528759, 0.06064499542117119, 0.41925427317619324, 0.06810946017503738, 0.45417311787605286], [0.05211755260825157, 0.3573313057422638, -0.06750539690256119, 0.23098543286323547, 0.3938491642475128, -0.32418712973594666], [0.15525344014167786, 0.17531917989253998, 0.009839491918683052, 0.15371868014335632, -0.27864956855773926, -0.038474760949611664], [0.21320831775665283, 0.13017933070659637, 0.1072806864976883, -0.34774574637413025, 0.3057495057582855, -0.2652361989021301], [-0.44230565428733826, -0.0856834352016449, 0.12350071221590042, -0.38253164291381836, 0.1373620182275772, 0.13203692436218262], [-0.56734699010849, 0.6919001340866089, -0.43117183446884155, -0.2076084166765213, -0.10225056111812592, 0.09279419481754303], [0.030089931562542915, -0.35319727659225464, 0.11025581508874893, 0.08610814809799194, -0.05429786443710327, -0.34721675515174866], [-0.3525165319442749, -0.12550783157348633, 0.05223856493830681, -0.0889483168721199, -0.2880375385284424, 0.10494720190763474], [0.47206300497055054, -0.4449688196182251, -0.4760979413986206, -0.1625002771615982, 0.47744932770729065, -0.3372108042240143], [0.2593410909175873, 0.8431693911552429, -0.3709181547164917, -0.4387284219264984, 0.30705592036247253, 0.09054869413375854], [0.13595107197761536, 0.3268064260482788, -0.1282128542661667, -0.11821085214614868, -0.02045566588640213, 0.28762286901474], [-0.7026875019073486, 0.5044492483139038, -0.23204877972602844, 0.0717514380812645, 0.06194250285625458, -0.23466336727142334], [0.5381287336349487, -0.1759665310382843, -0.5118114948272705, -0.5665233135223389, 0.1055467501282692, -0.41092950105667114], [0.23310190439224243, -0.7755947709083557, -0.2655698359012604, 0.1697264313697815, -0.08084487915039062, 0.20113646984100342], [-0.7532109022140503, -0.20562908053398132, -0.3921157717704773, 0.435581773519516, -0.10785521566867828, -0.293802946805954], [-0.33724984526634216, 0.03770357370376587, 0.10402812063694, -0.2077334225177765, -0.3638438880443573, -0.03074212186038494], [-0.04835302010178566, 1.1045702695846558, -0.5601203441619873, -0.023102566599845886, -0.13919350504875183, -0.028198447078466415], [-0.4098505675792694, -2.0074751377105713, -0.08602285385131836, -0.23165956139564514, 0.015230502001941204, -0.3650769889354706], [0.20486585795879364, -0.2683753967285156, -0.4914107322692871, -0.23177243769168854, -0.32778313755989075, -0.32476723194122314], [0.5137494206428528, 0.5658746361732483, 0.20410983264446259, -0.1852463185787201, 0.2954121232032776, -0.572693407535553], [-1.0716191530227661, 0.06054550036787987, -0.08320888876914978, 0.27871787548065186, 0.13486361503601074, 0.11445330828428268], [-0.018614448606967926, -0.26068392395973206, 0.2301996350288391, -0.2188565731048584, 0.015909725800156593, -0.3112148344516754], [0.34284210205078125, 0.1610095202922821, 0.04862198233604431, -0.35806193947792053, -0.3283947706222534, -0.6108537316322327], [0.32469069957733154, -0.20059116184711456, -0.18784724175930023, -0.3800201714038849, 0.07808195054531097, 0.1776316910982132], [-0.07205060869455338, -0.16772767901420593, -0.40636640787124634, -0.34524646401405334, 0.08701992779970169, 0.04811582341790199], [0.127749964594841, 0.13542440533638, -0.48167696595191956, -0.2590726315975189, -0.31820452213287354, -0.2919090986251831], [0.391889750957489, -0.25384292006492615, -0.3426465094089508, -0.2046957015991211, 0.2872233986854553, -0.41442832350730896], [-0.021208666265010834, 0.3502599895000458, -0.3845541477203369, -0.2435612827539444, -0.45619475841522217, 0.015066065825521946], [-0.5508303642272949, 0.1816026270389557, 0.2852063775062561, -0.03348834067583084, -0.39669594168663025, 0.23351922631263733], [0.11539028584957123, -0.4190918207168579, 0.06620827317237854, -0.1452057957649231, -0.29569920897483826, -0.04933944344520569], [-0.7460916042327881, 0.24024634063243866, -0.26473698019981384, -0.151582732796669, 0.14189118146896362, 0.43337661027908325], [0.16146382689476013, 0.13160431385040283, -0.010582205839455128, -0.47023043036460876, -0.26084476709365845, -0.47646456956863403], [-0.3280099332332611, -0.25386589765548706, 0.21454547345638275, 0.11062127351760864, -0.1963595300912857, 0.17545466125011444], [-0.44144439697265625, -0.10464560985565186, 0.20033714175224304, -0.3303612768650055, 0.14480692148208618, 0.23813143372535706], [-0.024088943377137184, -0.3046073317527771, -0.18118861317634583, -0.3057725131511688, -0.013543779961764812, 0.22757531702518463], [-1.1721495389938354, -1.4127172231674194, -0.019781984388828278, 0.05995118245482445, 0.3452535569667816, -0.3228580355644226], [0.28119581937789917, -0.6932801604270935, -0.35727888345718384, 0.3283374309539795, -0.3983871638774872, -0.057687535881996155], [0.3121036887168884, -0.006936199031770229, 0.17282694578170776, -0.07686390727758408, -0.1996683031320572, -0.33138763904571533], [-1.2610952854156494, -0.18136538565158844, 0.0356057733297348, 0.05774367228150368, 0.4013198912143707, 0.3910577893257141], [-0.364138662815094, 0.6728560328483582, -0.3897414207458496, -0.09225939214229584, 0.2480013370513916, 0.12190679460763931], [0.7020965218544006, -0.45954084396362305, 0.12622082233428955, 0.0374138318002224, 0.24820217490196228, -0.6504145860671997], [-0.604547381401062, -0.2536921203136444, 0.45752233266830444, 0.5671949982643127, 0.2461819350719452, -0.342826247215271], [-1.605354905128479, 0.256836473941803, -0.3323737382888794, 0.3170965015888214, -0.23494471609592438, -0.2614189684391022], [0.3046782612800598, 0.9836545586585999, -0.6222823858261108, -0.44270408153533936, -0.9449192881584167, 0.3754000961780548], [-0.13947182893753052, 0.05917244777083397, -0.15892764925956726, -0.09896466881036758, -0.2178899049758911, 0.10988205671310425], [-0.07545653730630875, 0.17930065095424652, 0.0681399330496788, 0.03787015751004219, -0.13809628784656525, -0.06674084067344666], [0.04979390278458595, 0.5305461883544922, -0.03846549615263939, -0.10396067798137665, 0.4455835521221161, -0.31326597929000854], [-0.06591389328241348, -0.09397720545530319, 0.14665921032428741, 0.04992912709712982, 0.0098381033167243, -0.5322030186653137], [-0.6922533512115479, 0.06961237639188766, 0.0022527773398905993, 0.06746918708086014, 0.12905503809452057, -0.1725325882434845], [-0.07795201241970062, -0.31832996010780334, 0.37004417181015015, -0.17158184945583344, -0.011825299821794033, -0.24381189048290253], [-0.45188307762145996, -0.13995715975761414, 0.3398972451686859, -0.09309469908475876, 0.297878235578537, 0.3390136659145355], [0.03493764251470566, -0.3553954064846039, -0.4000142514705658, -0.12513938546180725, -0.04453346133232117, 0.07240553200244904], [-0.2690892219543457, -0.2102552354335785, 0.1399853527545929, 0.026725638657808304, -0.36719369888305664, 0.22249044477939606], [-0.2268938571214676, -0.11361126601696014, -0.006726926192641258, -0.23886467516422272, 0.10799645632505417, 0.0928414836525917], [0.07103731483221054, -0.15200987458229065, -0.35549572110176086, -0.038052868098020554, -0.3101142942905426, 0.034561946988105774], [-0.0821894183754921, 0.21037375926971436, -0.1689884215593338, 0.17892462015151978, -0.10655037313699722, -0.20140999555587769], [-0.01083200704306364, 0.008250365033745766, -0.052629705518484116, 0.08480912446975708, -0.10183829814195633, 0.02281207963824272], [0.06943719834089279, 0.13071125745773315, 0.28793594241142273, 0.0748022198677063, -0.05429483950138092, -0.17943650484085083], [0.1804206520318985, 0.07431387901306152, -0.14224673807621002, -0.2991288900375366, -0.4015328884124756, -0.5175636410713196], [0.7385174632072449, -0.5874322652816772, -0.6297399401664734, 0.12940920889377594, 0.37689223885536194, -0.4651583433151245]], "fc1.bias": [0.1322154700756073, -0.35181403160095215, -0.038598354905843735, -0.37763190269470215, 0.047586362808942795, -0.4838540852069855, -0.4029110372066498, 0.09686316549777985, -0.06512729078531265, -0.25208109617233276, 0.026364244520664215, -0.1484958380460739, 0.0552617609500885, -0.307803213596344, -0.30506500601768494, 0.1347203105688095, -0.02867354452610016, 0.030738448724150658, 0.2810934782028198, 0.21433909237384796, 0.017374729737639427, 0.2197611778974533, 0.25484412908554077, -0.09301315993070602, 0.0021710668224841356, -0.36824512481689453, -0.09527398645877838, -0.051660120487213135, -0.12469606846570969, 0.23038677871227264, -0.12272419035434723, -0.019051121547818184, -0.2943192422389984, -0.46813976764678955, -0.0569276288151741, 0.1931954324245453, -0.21941258013248444, -0.24501407146453857, -0.3093401789665222, -0.08854084461927414, -0.25753259658813477, -0.3881140947341919, -0.2434493750333786, -0.23371239006519318, -0.019673921167850494, -0.0791076049208641, 0.4199178218841553, -0.3383992314338684, -0.2539910674095154, -0.20426474511623383, 0.12167719006538391, -0.017792442813515663, 0.051274046301841736, -0.4080306589603424, -0.45747530460357666, -0.3210521340370178, 0.07182811945676804, 0.047793105244636536, 0.23128102719783783, -0.022423872724175453, 0.030914396047592163, -0.4046580195426941, -0.054300930351018906, -0.13971365988254547], "fc2.weight": [[-0.11766131967306137, 0.6393486857414246, -0.4879762828350067, 0.04257926344871521, -0.09801497310400009, -0.025690607726573944, -0.08669453859329224, 0.006923138629645109, 0.08619257807731628, 0.4418078660964966, -0.10739889740943909, -0.04531724750995636, -0.549016535282135, 0.20131851732730865, 0.06591444462537766, -0.025363489985466003, -0.18622426688671112, -0.16437110304832458, -0.5080021023750305, 0.17502163350582123, 0.20115508139133453, -0.11472007632255554, 0.027440976351499557, 0.12553124129772186, -0.027896173298358917, -0.12193703651428223, 0.19229072332382202, -0.004706305917352438, 0.05592356249690056, 0.08883834630250931, -0.4885424077510834, 0.012782370671629906, 0.11285415291786194, 0.19738978147506714, 0.09067638963460922, 0.25848397612571716, -0.0002996424154844135, 0.019368568435311317, 0.026566103100776672, -0.2284868210554123, 0.07439084351062775, 0.08563368767499924, -0.19711896777153015, 0.03125063329935074, -0.016912594437599182, -0.04405343160033226, -0.061991408467292786, -0.12512090802192688, -0.15424129366874695, 0.13321557641029358, 0.14287802577018738, 0.10692042857408524, -0.005087356548756361, 0.12403342127799988, -0.09954669326543808, 0.1108098179101944, -0.07091198861598969, -0.09322556108236313, -0.08795451372861862, 0.019477689638733864, -0.00868547149002552, 0.162273570895195, 0.04430828243494034, -0.25912705063819885], [-0.12334227561950684, -0.030338287353515625, -0.12367521226406097, 0.07391838729381561, -0.11244998872280121, 0.05151645839214325, -0.061077117919921875, -0.17085851728916168, -0.12470293045043945, -0.0014683008193969727, -0.050286516547203064, 0.10993391275405884, -0.23163838684558868, -0.2806857228279114, -0.17815859615802765, -0.027682289481163025, -0.15988865494728088, -0.2765025496482849, 0.018809422850608826, -0.33038780093193054, -0.13357247412204742, 0.06518971920013428, -0.16181713342666626, -0.11813844740390778, 0.043963655829429626, -0.026636913418769836, -0.01646105945110321, -0.12511879205703735, 0.008843779563903809, -0.2152990698814392, 0.029243454337120056, -0.22458516061306, -0.09877021610736847, 0.05691215395927429, -0.06716929376125336, -0.10254931449890137, 0.0548563152551651, -0.05773182213306427, -0.01041896641254425, 0.10285864770412445, -0.05895523726940155, -0.03842972218990326, -0.014969781041145325, -0.052904948592185974, -0.1455254852771759, -0.04987938702106476, -0.08267533779144287, -0.18846012651920319, 0.07862693071365356, 0.009576663374900818, -0.00573122501373291, 0.018549978733062744, -0.10127942264080048, -0.03936603665351868, 0.058664605021476746, -0.08563187718391418, -0.2836754322052002, 0.010684192180633545, -0.36485862731933594, -0.02250915765762329, -0.05916523560881615, -0.009814232587814331, 0.08036313951015472, -0.07908350229263306], [0.04239191487431526, -0.11854522675275803, 0.03504205495119095, -0.12200534343719482, -0.1285731941461563, -0.09521019458770752, 0.110741525888443, -0.1705196052789688, -0.1990274041891098, -0.14449608325958252, -0.09781776368618011, -0.034312233328819275, 0.0033457837998867035, 0.030403530225157738, 0.042984481900930405, 0.03778855875134468, -0.1301167756319046, 0.04942439869046211, 0.08547502756118774, -0.029406467452645302, 0.0613308884203434, -0.054676372557878494, -0.11555828154087067, -0.1672847718000412, 0.03293699026107788, -0.09217977523803711, 0.023295806720852852, -0.06342003494501114, 0.024655183777213097, 0.016144024208188057, -0.14372076094150543, -0.17260493338108063, -0.05292622745037079, -0.01105053722858429, -0.04947056993842125, -0.17551691830158234, -0.1106245145201683, 0.012926347553730011, 0.10491284728050232, -0.0710691288113594, -0.11989016830921173, -0.05085505545139313, -0.1956915706396103, -0.12561537325382233, -0.13497139513492584, -0.10549283772706985, -0.17116060853004456, -0.019305681809782982, -0.13225053250789642, 0.03534252569079399, -0.009039387106895447, 0.013260327279567719, 0.04156668856739998, 0.05261322855949402, 0.11686322093009949, -0.05791376531124115, -0.023209257051348686, -0.16292358934879303, -0.1535366177558899, -0.12399085611104965, -0.15686295926570892, 0.05794437229633331, 0.0764894038438797, -0.04259965568780899], [0.020075242966413498, 0.0020907348953187466, -0.05697539448738098, 0.12207609415054321, 0.0376632958650589, -0.10555636137723923, 0.09569612145423889, 0.03698264807462692, -0.16755053400993347, -0.10791639983654022, 0.053203828632831573, 0.0917721539735794, 0.009378681890666485, -0.17815904319286346, -0.12165068089962006, -0.02858414687216282, -0.10733270645141602, 0.01783866249024868, 0.03639781102538109, -0.09036692976951599, 0.001506436849012971, -0.03725886344909668, -0.10963760316371918, -0.11949285864830017, -0.05518050119280815, 0.0570637546479702, -0.059765201061964035, -0.10304262489080429, -0.10614732652902603, 0.03831007331609726, 0.014360889792442322, -0.14925870299339294, -0.03895986080169678, -0.09138112515211105, -0.1601448804140091, -0.03889814391732216, 0.06565961241722107, 0.08454453945159912, -0.05787503719329834, -0.11114732176065445, -0.09590162336826324, 0.016861064359545708, -0.2041604071855545, -0.08719008415937424, 0.0030341804958879948, -0.027994509786367416, 0.011772289872169495, -0.11076337099075317, 0.07526594400405884, -0.10869193077087402, 0.0423162505030632, -0.16148246824741364, 0.04332631453871727, -0.11948350071907043, 0.07085378468036652, 0.0814952552318573, -0.1470853090286255, -0.19460263848304749, -0.055193498730659485, -0.07671775668859482, -0.17593756318092346, -0.03845106065273285, -0.0020480898674577475, -0.1335698515176773], [-0.0006254916661418974, -0.00020417571067810059, -0.03387691453099251, 0.018837928771972656, 0.11154559254646301, -0.04015319049358368, 0.0846632719039917, -0.15300384163856506, -0.15474526584148407, -0.10651987791061401, 0.0012571822153404355, 0.10164506733417511, -0.07423045486211777, -0.09718631207942963, -0.09836775809526443, -0.0544537715613842, 0.03279748931527138, 0.0007557183271273971, -0.03917012736201286, 0.060569051653146744, 0.08580604195594788, -0.14955942332744598, -0.00905819982290268, -0.054054372012615204, -0.04998438432812691, -0.11969313770532608, -0.05356743186712265, -0.13567125797271729, -0.11261358857154846, 0.005293950438499451, -0.0023346038069576025, -0.011515883728861809, 0.04671940207481384, -0.14232230186462402, -0.10928621888160706, -0.13792303204536438, -0.1879144012928009, 0.01652379147708416, 0.031000062823295593, -0.006549594923853874, -0.21546433866024017, -0.04899056628346443, -0.12649103999137878, -0.14702187478542328, -0.036221038550138474, 0.04772082716226578, -0.061607085168361664, 0.0035582133568823338, -0.09925229102373123, -0.03126867860555649, -0.12030746042728424, -0.01504264585673809, -0.006221921648830175, 0.11549150943756104, -0.06731089949607849, -0.03888143599033356, 0.05814727023243904, -0.1495339274406433, 0.019118711352348328, 0.06239490956068039, 0.04942367598414421, -0.02840123325586319, -0.11249315738677979, 0.006690358743071556], [0.1835096776485443, -0.35409653186798096, 0.1293753832578659, 0.09247292578220367, -0.0140526769682765, -0.04629068449139595, 0.09546974301338196, 0.05717100203037262, 0.12997658550739288, -0.45348864793777466, -0.04475875198841095, 0.12485319375991821, -0.06460074335336685, 0.036269742995500565, 0.31344717741012573, 0.1385127604007721, -0.25235500931739807, -0.3035813570022583, 0.03785001114010811, 0.05679914727807045, 0.9572453498840332, 1.0681160688400269, -0.16118226945400238, 0.015435238368809223, 0.1702115535736084, -0.11781556904315948, 0.03652304783463478, -0.004100621212273836, -0.05198908597230911, -0.06525112688541412, 0.1879645586013794, 0.13039140403270721, -0.04151473939418793, 0.3482503890991211, 0.23874825239181519, -0.036255527287721634, 0.07668083906173706, 0.04242570698261261, -0.06443898379802704, 1.098526954650879, -0.8232001066207886, -0.039975740015506744, 0.31188395619392395, 0.2061099410057068, -0.18683737516403198, 0.07738927006721497, 0.3759620189666748, 0.2955051064491272, -0.11061157286167145, -0.0034677311778068542, 0.08315333724021912, 0.008641427382826805, 0.10289836674928665, -0.015625059604644775, -0.04588821530342102, -0.03415989875793457, 0.03129378706216812, 0.19375771284103394, -0.15475349128246307, 0.16536357998847961, -0.12488064914941788, 0.01770385541021824, 0.11210067570209503, -0.5749424695968628], [-0.42317989468574524, 0.5339579582214355, -0.457253098487854, 0.11228236556053162, -0.4325453042984009, 0.08019494265317917, 0.018715232610702515, 0.20994573831558228, -0.055726271122694016, 0.443493127822876, -0.02936394326388836, -0.0686519593000412, 0.1726406365633011, 0.25504258275032043, -0.04634292423725128, -0.11412103474140167, 0.3141818642616272, -0.0936613455414772, -0.6666752099990845, 0.14094015955924988, -0.2686333954334259, -0.523558497428894, 0.06886029243469238, 0.22666233777999878, -0.1709539145231247, 0.04605790972709656, 0.22989033162593842, 0.04602667689323425, 0.01308480929583311, -0.01291109248995781, 0.05452404171228409, -0.11516717821359634, 0.10416191816329956, 0.059523750096559525, -0.07190430909395218, 0.17745396494865417, 0.00789137464016676, -0.1380636841058731, -0.06347185373306274, -0.6922582387924194, 0.09238165616989136, 0.18063229322433472, -0.14628934860229492, -0.13633011281490326, 0.34058237075805664, -0.12445725500583649, -0.20852883160114288, -0.368542343378067, -0.10589948296546936, 0.03664754703640938, 0.17065730690956116, 0.006793844513595104, 0.060869988054037094, -0.06748722493648529, -0.039426449686288834, 0.00793030858039856, -0.09451955556869507, -0.017480405047535896, -0.12395279109477997, 0.08340436220169067, 0.05329572409391403, -0.0017775471787899733, -0.010942138731479645, 0.34605032205581665], [-0.06262809783220291, 0.03327175974845886, -0.014876915141940117, 0.09997747838497162, 0.03749734163284302, 0.06302917003631592, -0.08895190060138702, 0.05472616106271744, -0.1638651341199875, -0.1498241424560547, -0.09026557207107544, -0.10508199036121368, -0.008554593659937382, -0.1607947051525116, -0.17198720574378967, -0.16635462641716003, -0.053683582693338394, -0.10785957425832748, -0.11522999405860901, -0.047954682260751724, -0.17867672443389893, -0.16964662075042725, -0.023382937535643578, -0.14266005158424377, 0.03424863889813423, 0.05337686091661453, -0.0736042931675911, -0.1382014900445938, -0.08870972692966461, -0.11971715837717056, -0.054153647273778915, -0.06110413372516632, -0.07801055908203125, -0.01893661543726921, 0.017278579995036125, 0.03200609236955643, -0.017517192289233208, -0.024968622252345085, -0.06648944318294525, -0.12953108549118042, -0.024267569184303284, -0.04830838739871979, -0.06375709176063538, 0.03753432631492615, -0.07606645673513412, -0.00950879417359829, -0.16443927586078644, -0.02932749129831791, 0.027215803042054176, 0.04612522944808006, -0.10226012766361237, -0.04738925024867058, -0.0454186350107193, 0.06395410001277924, 0.007826020009815693, 0.07661250233650208, -0.12827202677726746, -0.15681225061416626, 0.017218729481101036, -0.09899170696735382, -0.027675937861204147, -0.07891689985990524, -0.024892117828130722, -0.20693589746952057], [-0.11161773651838303, -0.1374329775571823, 0.007920817472040653, 0.07607561349868774, -0.03707993030548096, -0.1289561241865158, 0.053656697273254395, -0.16500511765480042, -0.020785633474588394, -0.049337130039930344, -0.1524643748998642, 0.058427780866622925, -0.17550113797187805, -0.1476433128118515, -0.04762910678982735, -0.10083024948835373, 0.025661831721663475, 0.01925104670226574, -0.08144423365592957, -0.14764055609703064, -0.1614396572113037, -0.07089436799287796, -0.06365250796079636, -0.06197488307952881, 0.03682943806052208, -0.039380401372909546, 0.006119393277913332, -0.05861041694879532, -0.12213358283042908, 0.016912126913666725, -0.03733726590871811, -0.15952125191688538, -0.17075447738170624, -0.14653556048870087, -0.18535059690475464, -0.055021338164806366, -0.15590663254261017, 0.017191819846630096, 0.06451389193534851, -0.055997639894485474, -0.14184777438640594, -0.1772761344909668, 0.03042481280863285, 0.03831524774432182, -0.10886861383914948, 0.04703599959611893, 0.0018905194010585546, 0.01439556386321783, -0.10664872080087662, -0.005579568445682526, -0.06784462928771973, -0.07115397602319717, -0.03873931244015694, -0.040881529450416565, 0.14931033551692963, 0.11425420641899109, -0.025670228525996208, 0.016415521502494812, -0.08657350391149521, -0.09016591310501099, 0.04196782410144806, -0.011481096036732197, 0.03849613666534424, 0.050704486668109894], [-0.08077530562877655, 0.32422497868537903, -0.5932232141494751, 0.03731374442577362, -0.26338157057762146, -0.12520335614681244, -0.06240181624889374, 0.15646551549434662, 0.03118993528187275, 0.1483938992023468, 0.08914848417043686, 0.018862977623939514, 0.08278360962867737, -0.014974093995988369, -0.07822059094905853, -0.06624660640954971, 0.14177745580673218, -0.03631052374839783, -0.3822008967399597, 0.09555748850107193, -0.07248672842979431, -0.34169331192970276, -0.06554857641458511, 0.03222208097577095, 0.055030036717653275, 0.028135955333709717, 0.008307049982249737, 0.014390211552381516, 0.04531926289200783, -0.05917968600988388, 0.05992503836750984, -0.03238819167017937, 0.07271981239318848, 0.07577276229858398, -0.06301591545343399, 0.163516566157341, -0.0709112361073494, 0.022117827087640762, 0.09984453022480011, -0.2011086493730545, 0.2149268388748169, 0.21034307777881622, 0.022960174828767776, -0.135704904794693, 0.3644062280654907, -0.09416376054286957, -0.21564845740795135, -0.27152377367019653, 0.010953680612146854, 0.07777468115091324, 0.11025312542915344, -0.05324637144804001, 0.0032242564484477043, 0.05085316300392151, -0.06045037508010864, 0.07961888611316681, 0.038011107593774796, -0.029623443260788918, -0.07433722168207169, -0.09225969016551971, -0.13781748712062836, 0.04408204182982445, 0.1899455487728119, -0.06999354809522629], [0.01260543242096901, -0.12836351990699768, -0.06592515110969543, -0.03324386477470398, -0.026107313111424446, 0.02373604290187359, 0.10409243404865265, -0.07532286643981934, -0.1282893717288971, 0.0024767094291746616, -0.03875405713915825, 0.004021510481834412, -0.030346591025590897, -0.1167575865983963, -0.09109388291835785, 0.05165668576955795, -0.042893990874290466, 0.022140953689813614, 0.01616624929010868, 0.04816640540957451, -0.008642875589430332, -0.10667334496974945, -0.17977456748485565, -0.07864589244127274, -0.08201906830072403, 0.10524801909923553, -0.1635519415140152, -0.03962401673197746, -0.11737466603517532, -0.1773422509431839, -0.18083028495311737, -0.031003450974822044, -0.006798609625548124, 0.1071401983499527, -0.09059757739305496, -0.1318102926015854, -0.08910611271858215, -0.14060300588607788, 0.0327305793762207, -0.14064426720142365, 0.1233161985874176, 0.04730731248855591, 0.017213087528944016, -0.07345167547464371, -0.08013780415058136, -0.09023826569318771, -0.021961713209748268, -0.09090188145637512, -0.01171468198299408, -0.02028326876461506, -0.09997131675481796, -0.07213784754276276, -0.09413927048444748, 0.006716445088386536, -0.019006997346878052, -0.09509828686714172, 0.009201126173138618, -0.06189998984336853, -0.09219595789909363, 0.031211793422698975, -0.03675243631005287, 0.04098436236381531, -0.08750796318054199, -0.09288262575864792], [-0.4216669201850891, 0.6176555752754211, -0.5697376132011414, -0.019980192184448242, -0.32294154167175293, -0.05295303091406822, -0.0739491879940033, 0.19907577335834503, 0.018532143905758858, 0.42971736192703247, 0.028253115713596344, -0.03364628553390503, 0.2537692189216614, 0.13193629682064056, -0.10562887787818909, 0.053553126752376556, 0.20955386757850647, -0.004885280970484018, -0.6419256925582886, -0.09321434050798416, -0.289726197719574, -0.4579615592956543, 0.006553401239216328, 0.0854351669549942, -0.14081136882305145, 0.00829651951789856, 0.11901993304491043, -0.0077842166647315025, -0.00563508365303278, -0.048133570700883865, 0.154680997133255, -0.10817371308803558, -0.07555809617042542, 0.07239315658807755, 0.038817401975393295, -0.044814370572566986, -0.0014367480762302876, 0.008398547768592834, 0.08711579442024231, -0.3931807577610016, 0.12328316271305084, -0.03647330403327942, -0.0681806430220604, -0.0452236570417881, 0.13896484673023224, -0.32429584860801697, -0.21610304713249207, -0.3774513900279999, -0.07958444952964783, 0.03498789295554161, 0.21682843565940857, -0.09131502360105515, 0.05481746420264244, 0.056284114718437195, 0.05649152770638466, -0.06762982904911041, -0.2158316671848297, 0.15193626284599304, 0.04878516122698784, 0.07774961739778519, -0.0004160404787398875, 0.048622582107782364, 0.1624307483434677, 0.14041899144649506], [-0.020917311310768127, 0.013111504726111889, 0.06488224864006042, -0.06263165175914764, 0.030731067061424255, 0.05917845666408539, -0.08517543971538544, -0.056754812598228455, -0.12928904592990875, -0.005057592876255512, 0.030982181429862976, -0.10998290777206421, -0.058311861008405685, -0.05890301242470741, 0.11407351493835449, -0.03328210860490799, -0.07211838662624359, -0.15386423468589783, -0.08618420362472534, -0.06783319264650345, -0.006064950954169035, -0.018880441784858704, 0.0772475153207779, -0.07227949798107147, 0.005503898952156305, -0.11184731125831604, -0.06009329855442047, -0.03842965513467789, 0.01995554193854332, -0.0586555115878582, 0.05267917364835739, 0.023818954825401306, -0.029167771339416504, 0.03442145884037018, -0.02463490702211857, 0.04313534498214722, 0.004068419337272644, -0.07696157693862915, -0.09165868163108826, -0.1639760136604309, 0.07862706482410431, 0.09682892262935638, -0.16440890729427338, -0.03453432023525238, -0.022872060537338257, 0.11819417774677277, -0.1301029622554779, -0.05057747662067413, -0.05609668791294098, -0.021441593766212463, 0.03280554711818695, -0.06164967641234398, -0.16564437747001648, 0.042563438415527344, -0.08203840255737305, -0.10867644846439362, -0.09494057297706604, -0.18394501507282257, -0.1579640954732895, -0.09860881417989731, -0.018860220909118652, 0.01542825996875763, 0.02335493266582489, 0.0036404430866241455], [-0.04455403983592987, 0.018151074647903442, -0.09197509288787842, -0.02291102707386017, -0.13664154708385468, 0.050736360251903534, -0.061480551958084106, -0.14839863777160645, -0.06899784505367279, -0.07593272626399994, -0.06569237262010574, 0.09821318089962006, -0.04177319258451462, 0.0811152309179306, -0.01737983524799347, -0.18010176718235016, 0.022794999182224274, -0.10897490382194519, -0.04066900163888931, -0.12043675780296326, -0.13054320216178894, -0.07798613607883453, -0.057900320738554, -0.04292139410972595, 0.003509768284857273, -0.08599487692117691, 0.05486656725406647, -0.0531751811504364, -0.12355400621891022, 0.04255463555455208, -0.176147922873497, -0.1649051010608673, -0.14825809001922607, -0.0007957593188621104, -0.06099684536457062, -0.13195385038852692, -0.10716801881790161, 0.08083736896514893, 0.10762350261211395, -0.010942958295345306, 0.05643890053033829, -0.015538605861365795, -0.01766715943813324, -0.058947786688804626, -0.006747518666088581, -0.12061552703380585, -0.025342121720314026, -0.03136385977268219, -0.04375050961971283, -0.03712974116206169, -0.04357675090432167, -0.08505595475435257, -0.008511875756084919, 0.00979606807231903, 0.026959121227264404, 0.11148196458816528, -0.011123385280370712, -0.08833317458629608, -0.11715397983789444, 0.011614824645221233, 0.03483648598194122, 0.049095265567302704, 0.030154762789607048, -0.1446651965379715], [-0.16205628216266632, -0.03825273737311363, -0.11945254355669022, 0.03924594819545746, -0.05885005742311478, -0.0020993410144001245, -0.031909212470054626, -0.0245464276522398, -0.10534696280956268, -0.05529655143618584, -0.1393267959356308, -0.033092424273490906, -0.11270613968372345, 0.00813259556889534, -0.18162763118743896, 0.013056698255240917, 0.04445818439126015, 0.01452589314430952, -0.09274613857269287, -0.03491366654634476, -0.05165445804595947, -0.007751882076263428, -0.14781762659549713, -0.025530196726322174, -0.016909761354327202, 0.04618997871875763, -0.1661057323217392, -0.10841947048902512, -0.1736271232366562, -0.08773431926965714, -0.05179562792181969, -0.08694576472043991, -0.07642898708581924, -0.03700479865074158, 0.008760912343859673, -0.17704179883003235, 0.03027939610183239, -0.0014640572480857372, -0.039485231041908264, -0.04014391452074051, -0.011387184262275696, 0.012347310781478882, -0.10653483122587204, -0.1450178623199463, 0.07678268849849701, -0.04118594899773598, 0.021909065544605255, 0.08410041034221649, 0.0071372175589203835, -0.17369163036346436, -0.047674406319856644, -0.1641026884317398, -0.06388811022043228, -0.10917401313781738, -0.07439795136451721, 0.07045330107212067, -0.08349128067493439, -0.1138250082731247, -0.0007362456526607275, -0.11307411640882492, -0.1631046086549759, -0.1194159984588623, -0.09813646972179413, -0.06274828314781189], [-0.03733301907777786, -0.11189968138933182, 0.10606704652309418, -0.08520415425300598, -0.0961155965924263, -0.10422355681657791, 0.09277825057506561, 0.027008363977074623, -0.14723655581474304, 0.027727020904421806, -0.10675511509180069, 0.11235229671001434, -0.03600601851940155, -0.10346157848834991, -0.03891892731189728, 0.021171655505895615, -0.10008478164672852, 0.011028611101210117, -0.15213072299957275, -0.07586324214935303, -0.0770023837685585, -0.1698664426803589, -0.10361720621585846, -0.00586118595674634, -0.1712946891784668, -0.113128662109375, 0.016441866755485535, -0.17901942133903503, -0.12452641129493713, -0.12305159121751785, 0.020082006230950356, -0.1546877771615982, -0.14766287803649902, -0.05258246138691902, -0.12644460797309875, -0.057542357593774796, -0.02057036943733692, -0.12124108523130417, -0.062254175543785095, 0.00952913984656334, -0.045268069952726364, 0.006810956634581089, 0.05509394779801369, -0.09555479139089584, -0.048003386706113815, -0.16866637766361237, 0.019303079694509506, 0.12447978556156158, 0.07661521434783936, -0.1985224038362503, -0.1894068866968155, 0.04837891086935997, -0.16239339113235474, -0.1192815899848938, -0.01199664268642664, -0.07852591574192047, 0.04294588789343834, 0.0002519887639209628, -0.14144697785377502, -0.1320655643939972, -0.051814913749694824, -0.13525159657001495, -0.1296038180589676, -0.09297940880060196], [-0.050475507974624634, 0.0993773490190506, 0.1093844622373581, 0.037935078144073486, -0.10768841207027435, -0.06207422912120819, 0.11362726986408234, -0.0744549036026001, 0.07789203524589539, 0.0749119222164154, -0.2960573434829712, -0.10485383868217468, -0.0789998397231102, 0.09136198461055756, 0.07524082064628601, -0.12189067900180817, 0.09660503268241882, -0.2592262625694275, -0.19013206660747528, -0.297402948141098, -0.11267394572496414, -0.10270947217941284, -0.07376331090927124, -0.017102837562561035, -0.06863754987716675, -0.10361173748970032, -0.1086515337228775, -0.11521501839160919, -0.10347767174243927, -0.1617131382226944, -0.09694047272205353, 0.048087865114212036, -0.05325862765312195, -0.10022002458572388, -0.10880212485790253, 0.0029790550470352173, 0.11856541037559509, -0.022430047392845154, -0.11412402987480164, 0.09757621586322784, -0.2301090657711029, 0.06481663882732391, 0.11802172660827637, -0.06131605803966522, -0.1825256645679474, -0.12502047419548035, -0.2049749791622162, -0.10232973098754883, 0.06973673403263092, 0.02232259511947632, -0.15399675071239471, -0.32054585218429565, -0.15728949010372162, -0.05086545646190643, -0.057111695408821106, 0.10662193596363068, -0.28550636768341064, -0.05364936590194702, -0.2231615036725998, -0.12131837755441666, -0.23601719737052917, -0.07789789140224457, 0.09039440751075745, -0.07401127368211746], [-0.5797263383865356, 0.38067567348480225, -0.20178742706775665, 0.05382165312767029, -0.14438028633594513, 0.06760953366756439, 0.08047863841056824, 0.12310169637203217, -0.08580712229013443, 0.6557838320732117, 0.1334315836429596, 0.059453368186950684, 0.16063940525054932, 0.31583479046821594, -0.43535375595092773, -0.14574657380580902, 0.2674826681613922, -0.018061188980937004, -0.5079075694084167, -0.025678448379039764, -0.35940274596214294, -1.1711755990982056, 0.2691648304462433, 0.2799301743507385, -0.10450645536184311, -0.03711192309856415, 0.15997445583343506, 0.17774219810962677, 0.03463279828429222, 0.1102009266614914, 0.05885227397084236, -0.013210185803472996, 0.07850752770900726, 0.1585850566625595, -0.11791115254163742, 0.06527011096477509, -0.07317216694355011, -0.04442755877971649, 0.06584341824054718, -1.1587319374084473, 0.2528035640716553, 0.18530835211277008, -0.1336708962917328, 0.07922981679439545, 0.3243389129638672, -0.05305251106619835, -0.27075299620628357, -0.17485284805297852, 0.030917689204216003, 0.029688123613595963, 0.01974002830684185, 0.08611870557069778, -0.16242848336696625, 0.008890777826309204, 0.07636904716491699, 0.04914204776287079, 0.1032978817820549, -0.09236524999141693, 0.06932906806468964, 0.11169551312923431, 0.16681717336177826, -0.03777385503053665, 0.08047569543123245, 0.2833203971385956], [-0.12996900081634521, -0.012296617031097412, 0.030897945165634155, -0.00440409779548645, 0.015435278415679932, -0.0841478481888771, -0.10361424088478088, -0.1311066746711731, -0.060135602951049805, -0.09675270318984985, -0.010029860772192478, 0.06134231388568878, -0.0016780575970187783, -0.05141761526465416, 0.05245083570480347, 0.047649599611759186, -0.1630031168460846, 0.06474994122982025, -0.009146839380264282, -0.03753025829792023, -0.17691642045974731, -0.04705372080206871, -0.024756811559200287, -0.05264133960008621, -0.05813509225845337, 0.07962994277477264, -0.030157120898365974, -0.09074259549379349, 0.008690927177667618, -0.09271176904439926, -0.08198627084493637, 0.034323010593652725, -0.06517872214317322, -0.0860169380903244, -0.17717529833316803, -0.1376608908176422, -0.07646551728248596, 0.045591339468955994, -0.10831737518310547, -0.15826258063316345, 0.0569557286798954, 0.12118515372276306, -0.12432366609573364, -0.11665114760398865, -0.010886242613196373, -0.1394314020872116, -0.06741871684789658, -0.01835949718952179, 0.05898447334766388, 0.10033603012561798, 0.024990836158394814, -0.005819541402161121, -0.1417238861322403, -0.07086631655693054, -0.06860849261283875, 0.06498508155345917, -0.15478815138339996, -0.009768524207174778, -0.163108229637146, -0.16206300258636475, -0.18178847432136536, 0.10973984003067017, -0.0740700215101242, 0.015134894289076328], [-0.32924723625183105, 0.6230080723762512, -0.3215411603450775, 0.007008805871009827, -0.35108068585395813, -0.069013312458992, 0.04393114149570465, 0.05807537958025932, 0.02985243871808052, 0.182094544172287, -0.003380510723218322, 0.06684908270835876, 0.19693371653556824, 0.16104047000408173, -0.09706640243530273, 0.07263389229774475, 0.16822922229766846, -0.0247556921094656, -0.6352460384368896, -0.03538665920495987, -0.1624325066804886, -0.3228650689125061, 0.12983401119709015, 0.12560753524303436, -0.04496777802705765, 0.16283246874809265, 0.19374458491802216, 0.1639285683631897, -0.16827818751335144, 0.11166790872812271, 0.11874645948410034, -0.018001025542616844, 0.06396438926458359, 0.16633178293704987, 0.10841172188520432, 0.12862473726272583, -0.06935135275125504, -0.055008839815855026, -0.03731980919837952, -0.22922398149967194, 0.2351173460483551, -0.012877468019723892, 0.008076868019998074, -0.10861486196517944, 0.2393556386232376, -0.3220008909702301, -0.22092540562152863, -0.28394490480422974, -0.001503331819549203, -0.026730172336101532, 0.127056285738945, -0.04078596085309982, 0.0010017224121838808, 0.022086933255195618, -0.007404178846627474, -0.045395538210868835, -0.03815007582306862, 0.13196583092212677, 0.04247667267918587, -0.12097489833831787, -0.030639002099633217, 0.010449325665831566, 0.18288832902908325, 0.28116655349731445], [-0.8273189067840576, 0.573672354221344, -0.740270733833313, -0.029794737696647644, -0.23544485867023468, 0.2043202817440033, -0.06651568412780762, 0.03524932265281677, 0.007276811171323061, 0.46710383892059326, -0.08938566595315933, 0.10794836282730103, 0.07072136551141739, 0.18615147471427917, -0.1127711832523346, -0.047191355377435684, 0.19689466059207916, 0.06796591728925705, -0.5303722620010376, -0.05427061393857002, -0.2737474739551544, -1.70863938331604, 0.04661273583769798, 0.19106577336788177, -0.09465803951025009, 0.012254399247467518, 0.13417968153953552, -0.08276375383138657, -0.019453139975667, 0.0654512271285057, 0.19642986357212067, -0.06666885316371918, 0.031998809427022934, 0.04223956540226936, -0.002721235388889909, 0.05942681059241295, -0.03683361038565636, -0.13613654673099518, -0.07801766693592072, -2.01405930519104, 0.08371077477931976, -0.08514608442783356, -0.14617890119552612, 0.25874030590057373, 0.11571414768695831, -0.37177905440330505, -0.03412429988384247, -0.1964072287082672, 0.054615654051303864, -0.05040302872657776, 0.1911698877811432, 0.0424584336578846, -0.03588562086224556, 0.10707752406597137, -0.0420374795794487, 0.11561624705791473, -0.06280070543289185, -0.059641722589731216, -0.01729128509759903, 0.02017362229526043, -0.1692865788936615, 0.09362468123435974, 0.01500820554792881, 0.19579611718654633], [-0.024311037734150887, 0.04027983173727989, -0.5229068994522095, -0.1061459332704544, -0.27239978313446045, 0.014494954608380795, 0.05190680921077728, 0.01841704361140728, -0.03904668614268303, 0.13054302334785461, -0.09574563056230545, -0.03610782325267792, 0.06348440796136856, -0.08285829424858093, -0.07494179159402847, 0.06651600450277328, 0.2596471905708313, -0.12072005867958069, -0.22695384919643402, -0.07424534112215042, 0.001192028052173555, -0.026848820969462395, 0.006652284413576126, 0.1092548593878746, -0.04354260861873627, -0.03354381024837494, 0.061571549624204636, -0.10511674731969833, -0.05228165537118912, 0.033367935568094254, 0.13624782860279083, -0.06271062791347504, -0.0839821994304657, 0.1789414882659912, -0.1484505981206894, 0.04821339249610901, -0.12709185481071472, -0.13088425993919373, 0.08639070391654968, 0.05852945148944855, 0.27234166860580444, 0.3508736789226532, -0.2117445319890976, -0.11657005548477173, 0.342561811208725, -0.11618180572986603, -0.03387513384222984, -0.11950334161520004, -0.09121990203857422, -0.041275881230831146, -0.13388243317604065, -0.04410669580101967, -0.05105515196919441, 0.058419257402420044, -0.052558355033397675, -0.05451232194900513, -0.11653193086385727, -0.08044464141130447, -0.013641847297549248, 0.05432966724038124, -0.09700555354356766, 0.38113436102867126, 0.10967923700809479, 0.26173803210258484], [-0.14979109168052673, 0.06312046200037003, -0.2598283588886261, -0.12286598980426788, -0.37074974179267883, 0.06122954562306404, 0.005050361156463623, -0.1240648403763771, -0.28493767976760864, 0.08015181124210358, -0.249481201171875, 0.0440923273563385, -0.2979428768157959, -0.10004603862762451, 0.13565650582313538, -0.18679603934288025, -0.17058606445789337, -0.221119686961174, -0.31847846508026123, -0.3232690691947937, 0.10435037314891815, -0.3516480326652527, -0.38893553614616394, -0.1881444901227951, -0.21462154388427734, -0.0678834319114685, -0.23571740090847015, -0.1745942384004593, 0.04093056917190552, -0.2135312706232071, -0.17434075474739075, 0.11053507030010223, -0.19821695983409882, -0.058279335498809814, -0.046358369290828705, -0.16403169929981232, 0.09421788156032562, -0.055996090173721313, 0.09252314269542694, -0.2586115002632141, -0.18198812007904053, -0.34877899289131165, -0.10504021495580673, 0.01522609032690525, -0.26838213205337524, -0.31365570425987244, -0.016780083999037743, -0.01703011989593506, 0.03285139799118042, 0.10786426067352295, -0.08087620139122009, -0.29374197125434875, -0.22153986990451813, -0.07721918821334839, 0.022441580891609192, 0.015297412872314453, -0.29850295186042786, -0.06535863876342773, -0.32808810472488403, -0.20845715701580048, -0.26210731267929077, -0.29281526803970337, -0.3342481255531311, -0.34001418948173523], [-0.15804961323738098, -0.16991651058197021, 0.026410264894366264, 0.07896508276462555, -0.15446411073207855, -0.15060867369174957, 0.020968183875083923, 0.04985836148262024, -0.026710808277130127, 0.04057199880480766, -0.024484723806381226, -0.01329842209815979, -0.07819568365812302, 3.6475288652582094e-05, -0.003293554997071624, 0.0004120348603464663, -0.11276866495609283, -0.18071478605270386, -0.01106436550617218, -0.02828207053244114, -0.08184304088354111, -0.14059515297412872, -0.03356001153588295, -0.1106254830956459, -0.17203791439533234, 0.03795376420021057, -0.10829588770866394, -0.039146941155195236, -0.17637982964515686, -0.0516858845949173, -0.01795986108481884, 0.06373236328363419, 0.01127566210925579, -0.11404953896999359, -0.022025639191269875, -0.05357737094163895, 0.031910449266433716, -0.05247916281223297, 0.025506839156150818, 0.01676650159060955, 0.10192571580410004, 0.09051801264286041, 0.022235004231333733, 0.0012693970929831266, -0.0577334463596344, -0.09841058403253555, -0.021320175379514694, 0.005294099450111389, -0.08449655771255493, -0.2069159746170044, -0.025120936334133148, -0.0847487524151802, -0.06563187390565872, -0.10184276103973389, -0.1757621169090271, -0.05092860758304596, -0.080682173371315, -0.05916127935051918, -0.15606370568275452, -0.0010289686033502221, -0.02510436438024044, -0.07406694442033768, 0.025672629475593567, -0.0479697585105896], [-0.348499596118927, 0.4555045962333679, -0.547597348690033, 0.045093804597854614, -0.08699354529380798, -0.023106427863240242, -0.08683305978775024, 0.035604286938905716, 0.0634041577577591, 0.23694109916687012, 0.05553022399544716, 0.11212632060050964, 0.1266467124223709, 0.12596789002418518, 0.01004672609269619, 0.043663255870342255, 0.10473167896270752, 0.011875338852405548, -0.36667585372924805, 0.044689077883958817, -0.16571077704429626, -0.6890709400177002, -0.09444185346364975, 0.14028982818126678, -0.13655905425548553, 0.11949633061885834, 0.06688547134399414, -0.03096492402255535, -0.1531197726726532, -0.08471018821001053, 0.20062769949436188, -0.1442275196313858, 0.04444625601172447, 0.07059130072593689, 0.0722089633345604, 0.18241699039936066, -0.13570569455623627, -0.09746479243040085, -0.06367415189743042, -0.5327420830726624, 0.2501411437988281, 0.08563739061355591, -0.05619936063885689, -0.040411170572042465, 0.3956449031829834, -0.1281302273273468, -0.027357827872037888, -0.16045615077018738, -0.03549796715378761, -0.0044152322225272655, -0.006546058692038059, 0.10661851614713669, -0.0970185250043869, -0.11025616526603699, 0.03923561051487923, 0.050541818141937256, -0.027203964069485664, -0.1026744470000267, -0.02549663558602333, -0.044190336018800735, -0.11988437175750732, 0.02339714765548706, 0.02413206361234188, 0.10104324668645859], [0.03133097663521767, 0.06349509954452515, -0.08196046948432922, 0.1000644862651825, -0.01152031123638153, 0.01856345124542713, -0.04904791712760925, 0.03926945850253105, -0.08199324458837509, -0.14788702130317688, -0.11824914813041687, 0.07133199274539948, -0.0062811169773340225, -0.1309790015220642, -0.003002181649208069, -0.1129484549164772, 0.04190546274185181, -0.1308005154132843, 0.053642213344573975, -0.12223413586616516, -0.005699038505554199, -0.02922326698899269, -0.024303069338202477, -0.0867890939116478, -0.031142789870500565, 0.09447702765464783, 0.004972830414772034, 0.011876524426043034, 0.027883440256118774, -0.1175820380449295, -0.12226034700870514, -0.0469503253698349, 0.03052118420600891, 0.04234755039215088, -0.10869114100933075, -0.054775699973106384, -0.040243178606033325, -0.08565294742584229, 0.02683761715888977, 0.03326132148504257, 0.10751628875732422, -0.1112765371799469, 0.06280963867902756, 0.052419669926166534, 0.023092836141586304, 0.00542043661698699, -0.17842306196689606, 0.08663088083267212, -0.04052072763442993, -0.06674860417842865, 0.054631587117910385, -0.11469538509845734, -0.015889734029769897, 0.008063152432441711, 0.03966169059276581, -0.11455035209655762, 0.07113425433635712, -0.12632299959659576, -0.03960404545068741, -0.1056165024638176, 0.05593571066856384, 0.08314153552055359, 0.07223188877105713, -0.0683276355266571], [-0.05786152929067612, 0.09665882587432861, -0.2649862766265869, -0.07331712543964386, -0.039785146713256836, 0.04622068628668785, 0.09679898619651794, 0.1319047212600708, -0.13049384951591492, 0.05029852315783501, -0.13136112689971924, 0.02837716042995453, -0.04392089694738388, -0.08121573179960251, 0.03100285306572914, 0.042722154408693314, 0.12791256606578827, -0.08417882025241852, -0.18636839091777802, -0.03220881149172783, -0.21308079361915588, -0.02204020321369171, 0.029609406366944313, -0.05030284821987152, -0.039097853004932404, -0.06071917712688446, 0.15943287312984467, 0.06530404090881348, -0.04988500103354454, -0.008396236225962639, -0.03280559927225113, -0.017162147909402847, -0.008900253102183342, 0.11829370260238647, -0.09563206136226654, 0.10214042663574219, -0.046162933111190796, -0.08820530027151108, 0.08892536163330078, -0.04231346398591995, 0.12615564465522766, 0.1466289907693863, -0.0861748456954956, 0.08923900872468948, 0.08805316686630249, -0.030841518193483353, -0.07563339173793793, -0.2702150046825409, -0.1251899152994156, 0.0325823538005352, 0.12061833590269089, 0.023430410772562027, 0.029519982635974884, -0.023190975189208984, -0.0211857371032238, 0.08261837065219879, 0.04813706874847412, -0.10163421928882599, 0.04057260602712631, -0.13635268807411194, 0.0385948121547699, 0.24739699065685272, 0.11215522140264511, 0.0707857608795166], [-0.05655631050467491, -0.08304709941148758, -0.05693916231393814, 0.060263797640800476, -0.15768767893314362, -0.13295729458332062, -0.0628461241722107, -0.015889696776866913, 0.05849377065896988, -0.09816282987594604, -0.12748809158802032, 0.08116357028484344, -0.051733989268541336, -0.1535487025976181, 0.018534159287810326, 0.018225792795419693, 0.023275213316082954, 0.06351667642593384, -0.018322348594665527, 0.059539295732975006, -0.1683027446269989, -0.102689728140831, -0.06793388724327087, -0.08498515188694, -0.08929236233234406, 0.038769274950027466, 0.11457841098308563, -0.15910930931568146, 0.05916169285774231, -0.1134030893445015, 0.04266950860619545, 0.0027173925191164017, -0.17888143658638, 0.028477177023887634, -0.08457578718662262, -0.12140302360057831, -0.008807075209915638, -0.0325046069920063, -0.1059039980173111, 0.001277430448681116, 0.08627913892269135, -0.061833739280700684, 0.06230008229613304, -0.0023836230393499136, -0.08402718603610992, -0.03143031895160675, -0.06983841955661774, -0.026267632842063904, -0.04457935690879822, -0.07872644066810608, -0.11055484414100647, -0.16403581202030182, 0.048840686678886414, -0.013417989015579224, 0.11463183164596558, -0.04223114252090454, -0.07016769796609879, -0.026799175888299942, -0.12516765296459198, -0.17810417711734772, -0.16103631258010864, 0.04459248483181, -0.059841424226760864, -0.006001785397529602], [0.20899993181228638, -0.34616708755493164, -0.05378464236855507, 0.0921114832162857, 0.12946422398090363, -0.1349351704120636, 0.06682325899600983, 0.058350883424282074, -0.0730988010764122, -0.183885395526886, 0.10698278993368149, -0.10649970173835754, -0.14076487720012665, -0.019419696182012558, 0.07111024111509323, -0.16114982962608337, -0.1676095724105835, -0.0371866337954998, -0.17782989144325256, 0.03425515443086624, -0.15820805728435516, 0.22535330057144165, -0.015979399904608727, -0.19320890307426453, -0.09491997212171555, -0.11538449674844742, -0.1762980967760086, -0.06658391654491425, -0.1475105732679367, -0.18670369684696198, -0.12971287965774536, -0.16171929240226746, 0.1459672600030899, -0.20264844596385956, -0.18581512570381165, -0.012963108718395233, 0.08450603485107422, -0.12499894201755524, -0.020514890551567078, -0.05260947719216347, 0.013928335160017014, -0.24794000387191772, -0.09597148001194, -0.10516708344221115, -0.11475346982479095, 0.0011629486689344049, -0.013014973141252995, -0.166617289185524, -0.1371736228466034, -0.0679425448179245, -0.021110178902745247, 0.02520127221941948, 0.08103315532207489, -0.07113116979598999, 0.16543346643447876, -0.01944008469581604, 0.08767274767160416, 0.06532013416290283, -0.11303824931383133, -0.05953450873494148, 0.03362155705690384, -0.06288368254899979, -0.22178755700588226, -0.12385232746601105], [-0.45397821068763733, -0.04721108824014664, -0.36577653884887695, -0.041545987129211426, -0.14228162169456482, -0.13414011895656586, 0.08085599541664124, 0.08939862251281738, 0.10526418685913086, -0.23664097487926483, -0.009639915078878403, -0.08040273189544678, 0.32983607053756714, 0.016121258959174156, -0.365770161151886, -0.042950212955474854, 0.24431951344013214, -0.0029589871410280466, -0.39683836698532104, -0.10248679667711258, -0.5811402797698975, -0.6053112149238586, 0.10803735256195068, 0.3289187252521515, -0.15150302648544312, 0.1622905731201172, 0.18499702215194702, 0.13341403007507324, -0.17494367063045502, 0.005860588978976011, 0.2856711745262146, -0.13812632858753204, -0.1562521606683731, 0.1517818570137024, -0.1339278221130371, 0.2102729231119156, -0.14362190663814545, -0.005116213113069534, -0.12153007090091705, -0.6664018630981445, 0.19494758546352386, 0.15791073441505432, -0.0482565239071846, -0.2796984016895294, 0.2156209647655487, -0.05252297222614288, -0.2293175607919693, -0.5743789672851562, -0.025916896760463715, -0.05249834433197975, 0.03430863097310066, -0.033592890948057175, 0.025370575487613678, 0.10544368624687195, 0.020353062078356743, 0.02893589437007904, 0.04884139820933342, -0.037592411041259766, -0.17747940123081207, -0.11744755506515503, -0.02213338576257229, 0.1767899990081787, 0.07326949387788773, 0.18113364279270172], [-0.14054091274738312, 0.00035677957930602133, -0.146644726395607, 0.08718866109848022, -0.07548166066408157, -0.14903563261032104, -0.09460276365280151, -0.027805810794234276, -0.10575930774211884, -0.05653741583228111, -0.1331857144832611, -0.026569902896881104, -0.08862078934907913, -0.14469575881958008, -0.12620975077152252, -0.030939964577555656, 0.039257023483514786, -0.02207046188414097, -0.16606612503528595, -0.0829927995800972, 0.039484281092882156, -0.13650618493556976, 0.022990746423602104, -0.19125182926654816, 0.025000249966979027, -0.09784403443336487, 0.04866662994027138, -0.059826042503118515, -0.11705289036035538, -0.054564375430345535, -0.11283215880393982, -0.04897553101181984, -0.006615668069571257, -0.09935178607702255, -0.020805366337299347, 0.009774669073522091, -0.04996570944786072, -0.1152382344007492, -0.10375997424125671, -0.006824912037700415, -0.09916027635335922, -0.14406923949718475, 0.02508506551384926, -0.12299833446741104, -0.11485914885997772, -0.15952067077159882, -0.15741993486881256, 0.036265283823013306, -0.12054835259914398, -0.032109882682561874, -0.060218628495931625, -0.14120477437973022, -0.059578441083431244, 0.096056267619133, 0.03235873579978943, -0.058277711272239685, -0.0990123599767685, -0.13830657303333282, -0.15620970726013184, 0.01786733977496624, -0.07336580753326416, -0.13571079075336456, -0.18166925013065338, -0.03669709712266922], [-0.17002783715724945, -0.025854721665382385, -0.12206992506980896, 0.09393860399723053, -0.161980539560318, -0.1065165102481842, -0.0811149924993515, -0.11190451681613922, 0.027629919350147247, -0.009771057404577732, -0.06228846684098244, 0.0973631739616394, 0.03166981041431427, -0.09910695999860764, -0.016641180962324142, 0.05820772796869278, -0.16391952335834503, -0.04687071964144707, -0.1530507653951645, -0.06342064589262009, -0.11344326287508011, -0.13194559514522552, -0.04522991180419922, -0.17085234820842743, -0.1682758927345276, -0.0049934983253479, -0.11078820377588272, -0.11492094397544861, 0.04708283394575119, -0.06193709373474121, -0.005025103688240051, 0.05899124965071678, -0.05219458043575287, 0.019948512315750122, -0.07253037393093109, -0.1247636154294014, -0.07687103003263474, -0.03633477911353111, -0.1065254807472229, -0.05401004105806351, 0.0605137012898922, 0.021163776516914368, -0.04524810612201691, 0.05026373639702797, -0.06226259842514992, -0.11743683367967606, -0.020288586616516113, -0.1688508242368698, 0.052275482565164566, -0.1033448651432991, 0.007294955663383007, -0.02114335261285305, -0.1479918658733368, -0.07716871798038483, 0.08174625039100647, 0.07825824618339539, -0.0030056429095566273, -0.1058148518204689, 0.03859404847025871, -0.09712287038564682, -0.130894273519516, 0.025310084223747253, 0.08045786619186401, 0.030036315321922302], [0.030637118965387344, 0.04144163802266121, -0.0517902709543705, -0.09181395173072815, 0.06395821273326874, -0.1450146585702896, -0.05241648852825165, -0.14316217601299286, -0.07849693298339844, -0.1364942193031311, -0.12043098360300064, -0.03505870699882507, -0.08295343816280365, -0.042198341339826584, -0.08257895708084106, -0.051316894590854645, -0.08286319673061371, 0.00577130913734436, -0.09072629362344742, -0.032845500856637955, 0.0032693305984139442, 0.062007687985897064, -0.02812870591878891, -0.08038042485713959, -0.10453936457633972, 0.04966418445110321, 0.003745454829186201, -0.16104985773563385, -0.020789606496691704, -0.09986045211553574, 0.03035781905055046, -0.02114439196884632, 0.04887189343571663, -0.10399318486452103, 0.02685268595814705, -0.09258881956338882, -0.04370381683111191, 0.07277941703796387, 0.11444747447967529, 0.019412951543927193, 0.015072853304445744, 0.0319642573595047, -0.09861679375171661, -0.11621497571468353, 0.024943172931671143, -0.05052032694220543, 0.08971007168292999, -0.17246057093143463, 0.04394221305847168, -0.07393691688776016, 0.06575390696525574, -0.04698612168431282, -0.09768024832010269, 0.07988336682319641, -0.06605401635169983, 0.022979557514190674, 0.0439421646296978, -0.024422142654657364, -0.16189391911029816, -0.011592532508075237, -0.08111812174320221, -0.18518681824207306, -0.16237159073352814, 0.07800513505935669], [-0.01285614725202322, -0.09542495757341385, -0.1461653858423233, 0.02220451831817627, -0.04441944882273674, -0.13527072966098785, 0.015367567539215088, -0.027056120336055756, -0.009074361063539982, -0.030019324272871017, -0.05624496564269066, 0.06296195089817047, 0.017149435356259346, -0.02702213265001774, -0.1737433820962906, -0.1429404765367508, 0.057727523148059845, 0.02541293017566204, -0.01640481688082218, -0.16642820835113525, -0.028189102187752724, -0.09038865566253662, -0.021181488409638405, -0.1036853939294815, 0.005395743064582348, -0.0036067187320441008, -0.14559964835643768, -0.03564994037151337, 0.004400322213768959, -0.08198865503072739, 0.04296427220106125, -0.041570547968149185, 0.007360980845987797, -0.035342805087566376, 0.01692814938724041, -0.0934755876660347, -0.04147122800350189, 0.05168096348643303, -0.05445922911167145, -0.115803062915802, -0.06050720065832138, -0.11694778501987457, -0.08051177114248276, 0.05660521611571312, -0.07895981520414352, -0.00023602914006914943, -0.06211346387863159, 0.018811006098985672, -0.08744842559099197, 0.010784211568534374, 0.007179155945777893, 0.02365085668861866, -0.034235093742609024, -0.07799385488033295, 0.1145390197634697, 0.044736623764038086, 0.0013397051952779293, 0.008807513862848282, -0.1812790334224701, 0.0037896172143518925, -0.09534101188182831, -0.13835154473781586, -0.16171550750732422, 0.016150066629052162], [-0.05449099838733673, 0.06586991250514984, -0.14881369471549988, 0.11437779664993286, -0.14106228947639465, 0.03278140351176262, 0.03176321089267731, -0.13725437223911285, -0.15016509592533112, -0.043420832604169846, -0.14702048897743225, 0.01875448226928711, -0.13006716966629028, 0.07519125193357468, -0.1398264318704605, -0.15491989254951477, 0.005560175981372595, -0.11301425099372864, 0.08161008358001709, 0.022638555616140366, -0.10588667541742325, -0.09146155416965485, -0.11214815825223923, -0.07283655554056168, 0.03937779739499092, 0.06388930976390839, -0.031077546998858452, -0.07637610286474228, -0.015003235079348087, -0.039985500276088715, -0.06758812069892883, 0.06771858036518097, -0.1321655809879303, -0.17674103379249573, -0.06195181608200073, 0.010985955595970154, -0.009154921397566795, -0.00872810184955597, -0.11941242218017578, 0.008835786953568459, 0.06698574125766754, -0.04925773665308952, -0.024784451350569725, 0.0702638030052185, -0.12102187424898148, 0.041931699961423874, -0.15303348004817963, -0.0772966518998146, -0.011585782282054424, -0.031140411272644997, -0.1241765022277832, -0.06264415383338928, -0.051041681319475174, -0.07041269540786743, -0.17296694219112396, -0.015215322375297546, 0.009156077168881893, -0.14387035369873047, -0.05013618245720863, -0.04828449338674545, -0.00665114214643836, 0.04211672767996788, -0.07351301610469818, -0.0695391520857811], [-0.6495822668075562, 0.5468020439147949, -0.769046425819397, -0.015778854489326477, -0.2709118127822876, -0.09614928066730499, 0.020013436675071716, -0.01280939020216465, 0.013433823361992836, 0.4428732693195343, 0.07994930446147919, 0.03352181613445282, 0.03018967993557453, 0.30239471793174744, -0.06532900035381317, -0.09745196998119354, 0.20453231036663055, 0.02025035209953785, -0.5012014508247375, -0.20428018271923065, -0.3961714506149292, -1.7363102436065674, -0.0702865794301033, 0.18531745672225952, 0.009540034458041191, -0.032661549746990204, 0.13480457663536072, 0.03623730316758156, 0.003231767797842622, 0.051649246364831924, 0.2139529287815094, -0.14580722153186798, 0.08737035095691681, 0.08601737767457962, 0.1523555964231491, 0.0669214278459549, 0.07215971499681473, -0.08882105350494385, -0.05377356708049774, -1.823854923248291, 0.20278584957122803, 0.08251283317804337, 0.014051702804863453, 0.07843201607465744, 0.30445700883865356, -0.20014004409313202, -0.11943181604146957, -0.620038628578186, -0.05343113839626312, -0.04836041480302811, 0.07217960059642792, -0.10199751704931259, -0.0009053279063664377, 0.11663798987865448, -0.1213657557964325, 0.10765095055103302, -0.0528116300702095, -0.10105977207422256, 0.0032617535907775164, 0.02456628531217575, -0.07293177396059036, 0.12324133515357971, 0.017814841121435165, 0.07716865837574005], [-0.3577421009540558, 0.6962929964065552, -0.6443340182304382, -0.0670865923166275, -0.42545512318611145, 0.09890824556350708, -0.10155424475669861, 0.16282828152179718, -0.015317227691411972, 0.3552311956882477, -0.10761099308729172, 0.0920305848121643, 0.16166532039642334, 0.1309998780488968, -0.17227059602737427, 0.06836708635091782, 0.28087279200553894, 0.028498489409685135, -0.4860801696777344, -0.18206585943698883, -0.10157039761543274, -0.47897419333457947, -0.0593397431075573, 0.23752351105213165, -0.06921587139368057, -0.029340075328946114, 0.18108883500099182, 0.1326734721660614, -0.18229317665100098, -0.05400777608156204, 0.22265122830867767, -0.1490098088979721, 0.0191586222499609, 0.1735096424818039, -0.05764918774366379, 0.03257465362548828, -0.2073412537574768, -0.0456741526722908, 0.08966238796710968, -0.43794122338294983, 0.34296488761901855, 0.10883529484272003, -0.11805926263332367, 0.039429597556591034, 0.23123018443584442, -0.25816240906715393, -0.11899935454130173, -0.37148600816726685, 0.015152448788285255, 0.02357841469347477, 0.17228171229362488, -0.09318586438894272, -0.12414081394672394, 0.0925963819026947, -0.08092765510082245, 0.035691261291503906, -0.1963469237089157, 0.005157563369721174, -0.08817975223064423, -0.026505857706069946, 0.03238414227962494, -0.061683911830186844, 0.15606623888015747, 0.38390016555786133], [0.11579813808202744, -0.24429771304130554, -0.2944297194480896, -0.05133539438247681, 0.06877146661281586, -0.09635096043348312, 0.0345776230096817, 0.01906384341418743, 0.0040832096710801125, -0.09101562947034836, -0.03189501911401749, -0.03869025409221649, 0.028283612802624702, -0.1883431077003479, -0.0780370756983757, -0.062482915818691254, -0.24873743951320648, -0.0056227464228868484, 0.3838993012905121, 0.037373725324869156, -0.28443363308906555, -0.23789489269256592, 0.1548541784286499, -0.007849487476050854, -0.002190730068832636, -0.05159071087837219, -0.14892852306365967, -0.026347290724515915, 0.027087602764368057, -0.1525125950574875, -0.17325513064861298, -0.010333254933357239, -0.1534355729818344, 0.014857809990644455, -0.09234292060136795, -0.10819882899522781, -0.10923444479703903, 0.06072618439793587, -0.038164347410202026, 0.043044667690992355, 0.8334476947784424, 0.07833930104970932, -0.2389059066772461, -0.11667086184024811, 0.06013759225606918, 0.14032359421253204, -0.03600277006626129, -0.29014235734939575, -0.09131380170583725, -0.10511370748281479, -0.11257631331682205, 0.034053679555654526, -0.00628610048443079, 0.01725757122039795, -0.002015684498474002, 0.09667493402957916, -0.045129161328077316, 0.013214229606091976, 0.12553231418132782, -0.058569032698869705, -0.06848504394292831, -0.001889338018372655, -0.1692773997783661, 0.004174830857664347], [-0.09197932481765747, 0.11032344400882721, 0.07622358202934265, 0.09637951850891113, -0.09008614718914032, 0.10064783692359924, 0.0032401233911514282, -0.008324503898620605, -0.08076074719429016, -0.05774092674255371, -0.08713924884796143, -0.12428316473960876, -0.06331218779087067, -0.10095848143100739, -0.01530824601650238, -0.11811839044094086, -0.025921493768692017, 0.11915016174316406, 0.09812366962432861, 0.05803069472312927, -0.02209894359111786, -0.08879223465919495, -0.11207683384418488, 0.033731117844581604, -0.03154751658439636, 0.059150367975234985, -0.12123101949691772, -0.03792639076709747, -0.068764328956604, 0.03355097770690918, -0.05421419441699982, 0.09129905700683594, -0.11604723334312439, 0.052162885665893555, 0.038332611322402954, 0.07022708654403687, -0.1190178394317627, 0.10669426620006561, 0.07475514709949493, 0.03859667479991913, 0.010295048356056213, 0.07984934747219086, 0.1226205825805664, 0.10438503324985504, -0.12369853258132935, 0.07070931792259216, 0.056728363037109375, 0.014605611562728882, 0.08780646324157715, 0.021602734923362732, -0.12180958688259125, -0.029047951102256775, -0.0814177542924881, -0.027696937322616577, 0.06714664399623871, 0.03455103933811188, -0.032129332423210144, -0.11218620836734772, -0.021169736981391907, 0.11680400371551514, 0.047267794609069824, -0.1177801638841629, -0.10158638656139374, -0.041684284806251526], [-0.1586858481168747, 0.46399062871932983, -0.49545225501060486, 0.11903610825538635, -0.13489781320095062, 0.04404601454734802, -0.11082281172275543, 0.13311755657196045, 0.08419426530599594, 0.2673705816268921, 0.12308160960674286, -0.07235527038574219, 0.1390225738286972, -0.011587107554078102, -0.029356013983488083, -0.09732934832572937, 0.22364144027233124, 0.0362234003841877, -0.5500146746635437, -0.12123392522335052, -0.0501602478325367, -0.28642377257347107, 0.011775478720664978, 0.10867086797952652, 0.027422936633229256, -0.044574953615665436, 0.1777118444442749, 0.03379299119114876, 0.014000649563968182, -0.062138088047504425, 0.037752412259578705, -0.034153539687395096, -0.06935407966375351, 0.022036803886294365, -0.036875706166028976, 0.181492879986763, -0.11094950139522552, 0.08466416597366333, 0.07993890345096588, -0.3955424427986145, 0.3179607689380646, 0.18412141501903534, -0.05876971781253815, 0.014039386995136738, 0.19787204265594482, -0.2810289263725281, -0.05125635862350464, -0.2578166723251343, 0.06203419342637062, 0.018471017479896545, 0.012540088966488838, 0.1224713921546936, -0.11001642048358917, -0.03196963667869568, -0.035687725991010666, 0.0690949559211731, -0.11799940466880798, 0.08603782951831818, -0.06460018455982208, -0.0351288840174675, -0.08114087581634521, 0.02728160284459591, 0.12888909876346588, 0.3417046368122101], [-0.10430752485990524, -0.0509902723133564, -0.07686581462621689, 0.08316017687320709, -0.21583972871303558, -0.10641621798276901, -0.12355323135852814, -0.08645869046449661, -0.18253783881664276, -0.05076225474476814, -0.07366476207971573, 0.09319938719272614, -0.11425348371267319, -0.09446382522583008, -0.1604374498128891, 0.0617300383746624, 0.04890084266662598, -0.001469603506848216, 0.05842297524213791, 0.04915666580200195, -0.11010915786027908, -0.05355645343661308, -0.00416933698579669, 0.03864310681819916, -0.12875615060329437, -0.0861210972070694, 0.026335792616009712, 0.05896437540650368, 0.015676164999604225, 0.017199015244841576, 0.025813793763518333, -0.0011843512766063213, 0.06371769309043884, 0.09878900647163391, -0.10123900324106216, 0.09014533460140228, -0.16667227447032928, -0.08524119853973389, 0.10818183422088623, -0.10196512937545776, 0.04034614562988281, 0.14665934443473816, -0.18423400819301605, -0.1777837574481964, -0.026657650247216225, -0.05379980802536011, -0.020508915185928345, 0.006676299963146448, -0.20663444697856903, 0.16054855287075043, -0.06965209543704987, 0.003465035930275917, 0.03847293183207512, 0.12401728332042694, 0.0018794269999489188, 0.03581532835960388, 0.05047288537025452, 0.04969783127307892, -0.1763826608657837, -0.1648092269897461, -0.09636855870485306, -0.03110356628894806, -0.009305348619818687, -0.10959732532501221], [-0.05836774408817291, -0.11219396442174911, 0.01669122278690338, -0.08257018029689789, -0.013060708530247211, -0.16516651213169098, -0.0461956262588501, -0.0009532248950563371, -0.11626364290714264, -0.0029274821281433105, 0.05214116349816322, -0.01547311246395111, -0.05357895419001579, -0.020205330103635788, 0.04128832370042801, 0.04654330760240555, -0.09238336235284805, -0.10788653790950775, 0.054291170090436935, -0.13047686219215393, -0.07100046426057816, -0.0008627604111097753, -0.04439408332109451, -0.05413760617375374, -0.05065413564443588, -0.029218018054962158, 0.013663816265761852, 0.0614963099360466, -0.12625283002853394, -0.052400942891836166, 0.028907718136906624, -0.15584000945091248, -0.15807877480983734, -0.183299720287323, -0.11275012791156769, -0.017617812380194664, -0.004706817213445902, -0.07636845856904984, -0.0455547571182251, -0.08113280683755875, 0.053632043302059174, -0.13378509879112244, -0.15721066296100616, -0.1659550666809082, -0.17273582518100739, -0.07607118785381317, -0.15559083223342896, -0.16037729382514954, 0.018691523000597954, 0.059153079986572266, 0.04103739932179451, -0.11551820486783981, 0.04708949476480484, 0.049065083265304565, -0.01725313812494278, 0.04574039578437805, -0.1294592320919037, -0.1177033931016922, -0.018355228006839752, -0.13431596755981445, -0.14668256044387817, -0.1531466543674469, -0.0906258299946785, -0.06240757554769516], [-0.17843015491962433, -0.08051884919404984, -0.047880589962005615, -0.10137884318828583, 0.05029136687517166, 0.024146445095539093, -0.06622213125228882, -0.17195561528205872, 0.04676009714603424, -0.06890976428985596, -0.1759604513645172, 0.01323060691356659, 0.044183652848005295, -0.10537822544574738, -0.024601414799690247, 0.055555153638124466, -0.03948502987623215, -0.013120553456246853, -0.06939826160669327, -0.014587633311748505, -0.05499839037656784, -0.10761047154664993, -0.01491493359208107, -0.044141169637441635, -0.16801951825618744, 0.08901093900203705, -0.056376662105321884, -0.1774541139602661, -0.06814529001712799, -0.07493763417005539, -0.008438686840236187, -0.18165279924869537, -0.12179381400346756, -0.12136247754096985, -0.11968101561069489, -0.08942819386720657, 0.05086183547973633, -0.01757112145423889, -0.0820315033197403, 0.019062306731939316, 0.021702110767364502, -0.08061487972736359, -0.17925012111663818, -0.013966664671897888, 0.08784948289394379, -0.05414649099111557, -0.11861070245504379, -0.11455617845058441, 0.026529759168624878, 0.0421326570212841, 0.013908644206821918, 0.011145135387778282, 0.04658561572432518, 0.0994662195444107, -0.034232184290885925, -0.030175983905792236, 0.043125368654727936, -0.11602455377578735, -0.14815084636211395, -0.13009770214557648, -0.10788178443908691, -0.026027265936136246, 0.00039808452129364014, -0.02600007690489292], [-0.002709111664444208, -0.0568477101624012, -0.04122649505734444, -0.09382009506225586, 0.09257395565509796, 0.02603686787188053, 0.058723822236061096, -0.011498089879751205, -0.019499769434332848, -0.05257613584399223, -0.12767654657363892, 0.11878372728824615, -0.15294058620929718, 0.1259642094373703, 0.1620102822780609, -0.11367896944284439, -0.08917635679244995, -0.012683814391493797, -0.046736013144254684, 0.05961884558200836, 0.050988856703042984, -0.1116698607802391, -0.04832089692354202, -0.13075624406337738, -0.13535110652446747, -0.005846075247973204, 0.0435849130153656, 0.06328058242797852, 0.12906070053577423, -0.047928594052791595, -0.07570584118366241, 0.12933164834976196, 0.029244238510727882, -0.12072848528623581, 0.030833829194307327, -0.11878124624490738, -0.010556695982813835, 0.026003943756222725, 0.06468653678894043, 0.04805043712258339, 0.0799240991473198, -0.16580188274383545, 0.013169256038963795, 0.0327911302447319, -0.11638699471950531, -0.1733381301164627, -0.06802291423082352, 0.16165605187416077, 0.046993009746074677, -0.06658025830984116, -0.016664789989590645, -0.19704262912273407, -0.10862665623426437, -0.11055855453014374, 0.020677056163549423, -0.0013292431831359863, -0.05834803730249405, 0.0645456463098526, 0.09391351044178009, -0.06614932417869568, 0.08255814760923386, -0.14697645604610443, -0.05487217381596565, -0.1167188361287117], [-0.013094187714159489, 0.17444828152656555, -0.13893167674541473, -0.0013893991708755493, -0.17405954003334045, -0.16459757089614868, -0.10940496623516083, -0.08724047988653183, -0.13280868530273438, 0.09739687293767929, -0.09155066311359406, 0.07046350836753845, -0.015459327027201653, -0.08749090135097504, -0.013078966177999973, -0.06795897334814072, 0.21987029910087585, -0.05063210800290108, -0.07017654925584793, -0.015158546157181263, -0.019597886130213737, -0.0883982703089714, -0.16010615229606628, 0.05190593749284744, -0.1135965883731842, 0.06267492473125458, 0.07369266450405121, -0.03049769625067711, -0.20551100373268127, 0.014515784569084644, 0.17433390021324158, -0.20060086250305176, 0.01161766517907381, 0.16149833798408508, -0.09175722301006317, -0.13671883940696716, -0.09582355618476868, -0.07110224664211273, 0.03040897846221924, -0.04945079982280731, 0.01908283494412899, 0.13200198113918304, -0.04242165759205818, 0.05488281324505806, 0.03938866779208183, 0.03349945321679115, -0.08770808577537537, -0.1779969483613968, -0.11350981891155243, -0.005739094689488411, -0.0574239157140255, 0.005301205441355705, 0.05550824850797653, -0.016675889492034912, -0.021565457805991173, -0.017783746123313904, 0.03496358171105385, -0.06393284350633621, 0.021892566233873367, -0.09584376215934753, -0.05863358452916145, 0.19465187191963196, -0.005919791758060455, 0.006845072377473116], [0.12328580766916275, 0.12891791760921478, -0.7741466760635376, 0.12486809492111206, -0.7053582072257996, -0.12974755465984344, 0.12243735790252686, 0.15628494322299957, -0.08474550396203995, 0.2131677269935608, 0.1411864310503006, -0.04831971228122711, 0.15508385002613068, -0.3969774544239044, -0.20296451449394226, -0.5180246829986572, 0.4432259202003479, 0.09147202223539352, -0.5135303139686584, -0.038446418941020966, -0.16833719611167908, 0.9758681654930115, 0.30942243337631226, 0.2685939371585846, -0.8033480048179626, 0.10125499963760376, 0.15170595049858093, 0.2760583758354187, -0.02086643874645233, 0.18510761857032776, 0.22171534597873688, -0.2033834606409073, 0.4722934663295746, -0.009246394038200378, -0.47799304127693176, 0.27975818514823914, 0.3800905644893646, -0.0712694376707077, -0.06452658772468567, 0.20374104380607605, 0.11950128525495529, 0.32343176007270813, -0.49596360325813293, -0.8692352175712585, 0.3711170256137848, -0.18357518315315247, -0.6994486451148987, -0.09446322172880173, -0.0002409517765045166, -0.08677247166633606, -0.07129141688346863, 0.09739862382411957, -0.38419046998023987, -0.0011756867170333862, 0.01488921046257019, 0.1166599839925766, -0.1712944060564041, -0.16635985672473907, 0.017777113243937492, 0.06930463761091232, 0.06034417077898979, 0.16700106859207153, 0.2414342314004898, 0.6659388542175293], [-0.07711419463157654, 0.08433759212493896, -0.03356976807117462, 0.10031898319721222, -0.02627496048808098, -0.08559662103652954, -0.06777426600456238, -0.10053016990423203, 0.004470318555831909, -0.03278961777687073, -0.042117271572351456, 0.08920417726039886, -0.11510704457759857, -0.09719404578208923, -0.04471100866794586, -0.07037623971700668, 0.034899577498435974, -0.12626777589321136, -0.07415531575679779, -0.05253205448389053, -0.06086915731430054, -0.048669904470443726, -0.08844144642353058, -0.09903118014335632, -0.03393830731511116, -0.02511514723300934, -0.019752800464630127, -0.00608690083026886, 0.09641118347644806, -0.05990399420261383, -0.03703735023736954, 0.0435064435005188, -0.020014286041259766, -0.05811481177806854, -0.027468010783195496, -0.0628727376461029, 0.008281990885734558, 0.00100003182888031, 0.0961022675037384, 0.11901798844337463, -0.19316133856773376, -0.09322823584079742, -0.06365084648132324, 0.010405957698822021, 0.011693854816257954, -0.0753084123134613, -0.14324899017810822, 0.06666529178619385, -0.06224140524864197, -0.1122659295797348, -0.06832420080900192, -0.23064155876636505, -0.16053582727909088, 5.3748488426208496e-05, -0.027723759412765503, -0.004756346344947815, -0.06553304195404053, -0.04641890525817871, -0.20919379591941833, -0.01096910797059536, -0.15897294878959656, -0.04332013428211212, 0.011677354574203491, -0.08610128611326218], [-0.12277960032224655, 0.02021479234099388, -0.022860417142510414, 0.07975088059902191, -0.08924872428178787, -0.008332761935889721, 0.09965507686138153, -0.09597377479076385, -0.1601976603269577, 0.00021229041158221662, -0.09772112220525742, -0.05603082478046417, -0.09648185968399048, -0.15543802082538605, 0.08545524626970291, 0.06250514090061188, -0.03488805517554283, -0.07859156280755997, 0.009954048320651054, 0.0437656044960022, -0.12427129596471786, -0.12101643532514572, -0.11535485833883286, -0.12429018318653107, -0.15226924419403076, -0.07720401138067245, -0.029592568054795265, -0.00047022977378219366, -0.06794588267803192, -0.08908677846193314, -0.11110439151525497, 0.06786172091960907, -0.005121910013258457, 0.030122555792331696, 0.010506565682590008, 0.02177317813038826, -0.07920780777931213, -0.08183785527944565, 0.035101115703582764, -0.16276103258132935, -0.07171225547790527, -0.11064869165420532, -0.12985897064208984, 0.030676567927002907, -0.09098587185144424, -0.025125686079263687, 0.07062727212905884, -0.01576611027121544, 0.014681153930723667, -0.08480604737997055, -0.01273436937481165, -0.0864524096250534, -0.029217703267931938, 0.10344994068145752, -0.04918690398335457, -0.06532324850559235, 0.01668705604970455, -0.05884718522429466, 0.025821655988693237, 0.05628926679491997, -0.1418561339378357, -0.0837213471531868, -0.1371108442544937, 0.01227874867618084], [-0.1328575313091278, 0.3607877194881439, -0.20691300928592682, -0.10536092519760132, -0.22036275267601013, 0.11952780932188034, 0.09500262141227722, 0.02607000060379505, 0.05388571694493294, 0.21785537898540497, -0.06502491980791092, 0.042186394333839417, 0.01947043463587761, 0.01707962155342102, -0.14663979411125183, -0.1163557767868042, 0.16341562569141388, 0.049682263284921646, -0.4858323037624359, -0.06276088953018188, -0.1345720738172531, -0.1457977145910263, 0.049186207354068756, 0.20609524846076965, -0.05103707313537598, 0.09752850979566574, 0.04953012615442276, 0.11571022868156433, -0.14575070142745972, 0.11717069894075394, -0.03171348571777344, -0.18255804479122162, 0.02939179539680481, 0.16078419983386993, 0.07379736006259918, 0.019898289814591408, -0.02503194473683834, -0.09556742757558823, -0.10943029820919037, -0.17598271369934082, 0.35299021005630493, 0.21658547222614288, -0.16005583107471466, 0.07891848683357239, 0.3049016296863556, -0.18693745136260986, -0.27419841289520264, -0.28988009691238403, -0.012152771465480328, 0.09118480235338211, 0.11361140012741089, 0.02750030718743801, 0.09498143196105957, -0.11627428233623505, -0.1861841231584549, 0.04306900501251221, -0.06073973327875137, 0.02100011706352234, 0.04741913452744484, -0.11733153462409973, 0.09719036519527435, 0.10345721244812012, 0.16703517735004425, 0.18840333819389343], [0.03677597641944885, -0.07150192558765411, -0.03319481015205383, 0.10407328605651855, 0.06507281959056854, -0.055422842502593994, 0.03492003679275513, -0.013145148754119873, -0.06463813781738281, -0.01608927547931671, -0.03588302433490753, -0.04097576439380646, 0.10349808633327484, -0.08184096217155457, -0.07550777494907379, -0.11747092008590698, -0.021738439798355103, -0.06939031183719635, -0.03770287334918976, 0.06262905895709991, 0.09775567054748535, 0.0037681162357330322, 0.08703725039958954, 0.005796372890472412, 0.026631653308868408, -0.10510973632335663, 0.09801098704338074, -0.10413140058517456, 0.053140535950660706, -0.06744663417339325, -0.0379602313041687, -0.03211165964603424, -0.12155497074127197, 0.07047265768051147, 0.08880509436130524, 0.01924458146095276, 0.11788685619831085, -0.05348210036754608, 0.03601942956447601, 0.024369820952415466, -0.06956110894680023, 0.08845297992229462, -0.11310805380344391, -0.11684006452560425, 0.05472172796726227, 0.05152788758277893, -0.02943214774131775, 0.09480810165405273, 0.093862384557724, -0.012261167168617249, -0.0018930435180664062, -0.06742210686206818, 0.06861962378025055, 0.08885177969932556, -0.08888360857963562, 0.0200493186712265, 0.07906843721866608, -0.10996264219284058, 0.010372459888458252, 0.02356332540512085, 0.011236563324928284, -0.00022135674953460693, 0.0038766413927078247, -0.10867276787757874], [0.007164923474192619, -0.0028774291276931763, 0.11517943441867828, -0.11479851603507996, -0.02639247477054596, -0.16190698742866516, 0.05239427089691162, -0.17312422394752502, -0.09430104494094849, 0.09496252238750458, 0.017638517543673515, 0.10137185454368591, -0.06108349561691284, 0.06698386371135712, -0.02307511866092682, 0.0458240769803524, -0.07667507231235504, -0.10766376554965973, -0.050271883606910706, -0.1352970153093338, 0.06010722741484642, 0.02438625693321228, -0.01042801234871149, 0.0044338395819067955, -0.14409907162189484, -0.04138077795505524, 0.012836582027375698, -0.03687464818358421, -0.01861409842967987, -0.027706604450941086, 0.08113011717796326, -0.0908026471734047, 0.11372880637645721, 0.060083210468292236, 0.07853536307811737, 0.039673417806625366, 0.03914138674736023, 0.04913938045501709, -0.05208578705787659, 0.11689265072345734, 0.0510629266500473, 0.0884837955236435, -0.09340958297252655, -0.12329986691474915, -0.030080687254667282, -0.051639072597026825, 0.06428299099206924, -0.07425397634506226, 0.11868393421173096, 0.02107354998588562, -0.1364605575799942, 0.013351653702557087, -0.17635507881641388, -0.03706228733062744, 0.05150642991065979, 0.08540651202201843, -0.13915205001831055, -0.17276285588741302, -0.08917450904846191, -0.06647317856550217, -0.08562278002500534, -0.08226184546947479, -0.10767658054828644, 0.035019662231206894], [-0.0037100613117218018, 0.04217324033379555, 0.06326062977313995, 0.03464639186859131, -0.06525887548923492, -0.11892929673194885, -0.0975196361541748, -0.08320435881614685, 0.015548044815659523, 0.041249535977840424, -0.17575401067733765, 0.0550738126039505, -0.13871964812278748, 0.001889810780994594, -0.023315131664276123, 0.04552044719457626, -0.07264737039804459, -0.06896106153726578, -0.06236971914768219, 0.025269363075494766, -0.0859963446855545, -0.009389389306306839, -0.17705996334552765, -0.008596978150308132, 0.03909236937761307, 0.08262117207050323, 0.04358118772506714, -0.15820235013961792, -0.05716779828071594, -0.15433555841445923, -0.006825089920312166, -0.14687666296958923, 0.08523683249950409, 0.04914239048957825, 0.04084457457065582, -0.13934068381786346, -0.0880221426486969, 0.08259803056716919, 0.06507211923599243, -0.00036605799687094986, 0.06461094319820404, 0.06305061280727386, -0.012554606422781944, -0.009331533685326576, -0.11110712587833405, -0.09692520648241043, -0.15880581736564636, -0.0467606782913208, -0.002305269241333008, -0.10336561501026154, -0.004782925825566053, -0.16814537346363068, -0.005757707171142101, -0.0012722611427307129, -0.04531024396419525, 0.12017406523227692, -0.07209883630275726, -0.12492674589157104, -0.03791341185569763, -0.1853669136762619, -0.030352413654327393, -0.11373013257980347, -0.12010927498340607, 0.018213748931884766], [-0.38829505443573, 0.20183607935905457, -0.573390543460846, -0.07439954578876495, -0.18715941905975342, 0.002079359022900462, 0.01811155676841736, -0.0767095759510994, 0.10910053551197052, 0.046153441071510315, 0.014164683409035206, -0.0006548911333084106, 0.1768820732831955, 0.1593654453754425, -0.049471259117126465, 0.055972620844841, 0.09323886781930923, -0.03428831696510315, -0.3681159019470215, -0.01805715262889862, -0.13267302513122559, -1.1628046035766602, -0.02733815647661686, 0.00959629938006401, 0.060186564922332764, 0.002442970871925354, 0.1246386468410492, -0.03737654536962509, -0.0015322398394346237, 0.08971946686506271, 0.2185179889202118, -0.17906351387500763, -0.09417306631803513, 0.30198508501052856, -0.030399654060602188, -0.009125180542469025, -0.08292420953512192, -0.02273551933467388, -0.061751946806907654, -1.3271877765655518, 0.15313249826431274, 0.13703323900699615, -0.05181887373328209, 0.21603934466838837, 0.2073792964220047, 0.0037959220353513956, -0.1311291754245758, -0.05504283681511879, -0.13206006586551666, -0.0918605774641037, 0.14236605167388916, 0.111151322722435, -0.04947488754987717, -0.007337689399719238, -0.0067199054174125195, -0.0007694512605667114, -0.011989431455731392, 0.06360357999801636, -0.10691045969724655, -0.008854181505739689, -0.0006070583476684988, 0.0925845056772232, 0.16769306361675262, -0.09674999862909317], [-0.17079593241214752, 0.43972864747047424, -0.248994842171669, -0.0610540509223938, -0.15775278210639954, -0.00893031433224678, 0.011686846613883972, 0.12876860797405243, 0.06978176534175873, 0.33961576223373413, 0.15554273128509521, -0.1007131040096283, 0.11591872572898865, 0.09598089009523392, -0.1336357295513153, -0.030329344794154167, 0.11554893851280212, 0.1530112773180008, 0.055335115641355515, 0.0852157324552536, -0.3520010709762573, -0.33308762311935425, 0.1263166218996048, 0.19632190465927124, -0.1677052080631256, 0.05287042632699013, 0.14783351123332977, 0.011346804909408092, 0.06352367252111435, 0.084823377430439, 0.20810921490192413, -0.1811830848455429, 0.01602094992995262, 0.2374306470155716, 0.005465384107083082, 0.05117979273200035, -0.13285088539123535, -0.009214138612151146, -0.004518643021583557, -0.29802146553993225, 0.5682311058044434, 0.27009889483451843, -0.08030711114406586, 0.010352826677262783, 0.6454967856407166, -0.039940282702445984, -0.137831911444664, -0.42943763732910156, -0.03118322789669037, 0.16727933287620544, 0.1619519293308258, 0.08730904757976532, -0.13127531111240387, 0.007912233471870422, -0.18474654853343964, -0.03287121653556824, -0.13866184651851654, 0.03630315139889717, 0.08354385197162628, -0.015905160456895828, -0.04464074596762657, 0.13823732733726501, 0.0154478270560503, 0.45919978618621826], [0.09029878675937653, -0.18246762454509735, 0.21405619382858276, -0.03980870544910431, 0.09902353584766388, -0.057047341018915176, -0.06994476914405823, -0.031588830053806305, 0.03632548823952675, -0.214506134390831, -0.15783359110355377, -0.08055000007152557, -0.12110064178705215, -0.06457602977752686, 0.19469349086284637, -0.1688961535692215, -0.04246878623962402, 0.03388955071568489, -0.21695226430892944, 0.019729547202587128, 0.1833449900150299, -0.015942711383104324, -0.0723423957824707, -0.1665193736553192, 0.08718965202569962, 0.04281974956393242, 0.05461542680859566, 0.01747453399002552, 0.059390533715486526, -0.02252020314335823, 0.03370273858308792, 0.17889484763145447, -0.1023821234703064, 0.00934306439012289, 0.030401751399040222, -0.03150169178843498, 0.0003191028372384608, 0.09176401048898697, 0.07047143578529358, -0.044262632727622986, -0.18577516078948975, -0.20749448239803314, -0.0036264879163354635, 0.040868211537599564, -0.1269489824771881, -2.3951270122779533e-05, 0.14836598932743073, 0.3695077896118164, -0.1042521595954895, -0.08671491593122482, 0.012336715124547482, -0.17226247489452362, -0.0043622334487736225, -0.048841848969459534, -0.053179286420345306, 0.08922095596790314, 0.11452440172433853, 0.025247571989893913, 0.060732651501894, -0.04997367039322853, 0.0889732837677002, -0.09422648698091507, -0.0973784551024437, -0.04875420406460762], [0.03958640620112419, -0.07358183711767197, -0.1224718987941742, -0.10150070488452911, -0.13775835931301117, 0.035756513476371765, -0.041906967759132385, -0.06772654503583908, -0.014270923100411892, -0.08502708375453949, -0.1680774986743927, -0.08443738520145416, 0.02427562139928341, -0.03734578937292099, 0.032607607543468475, -0.1875452995300293, -0.006020653992891312, 0.05062638223171234, 0.04718444123864174, -0.08665531128644943, -0.1451587975025177, 0.01107829064130783, 0.04878301918506622, 0.020476175472140312, -0.008374404162168503, -0.06495039910078049, -0.05882578343153, 0.03931446000933647, -0.053615059703588486, -0.026763731613755226, -0.0802515372633934, 0.00829277466982603, 0.012158735655248165, -0.15311384201049805, -0.15026122331619263, -0.13155007362365723, -0.09621147066354752, -0.16050279140472412, 0.025580227375030518, -0.09596511721611023, -0.0006309103919193149, -0.08194954693317413, -0.07995808124542236, -0.049448270350694656, -0.04446984454989433, -0.011917865835130215, 0.056340452283620834, -0.05270197615027428, 0.04322395846247673, -0.04922692850232124, 0.02564341016113758, -0.07327166199684143, -0.053973741829395294, 0.002167627215385437, -0.09449625760316849, -0.10058170557022095, 0.050588689744472504, -0.04535921663045883, -0.12289904057979584, -0.02136831544339657, -0.13981013000011444, 0.045855674892663956, -0.20692750811576843, -0.15635262429714203], [-0.07389860600233078, -0.17031386494636536, -0.12435593456029892, -0.03999461233615875, 0.020621975883841515, -0.09656690806150436, -0.08770596981048584, -0.16697263717651367, -0.06414114683866501, -0.04685337841510773, -0.15198135375976562, -0.014417946338653564, -0.13592374324798584, 0.15617257356643677, 0.027009854093194008, 0.008745016530156136, -0.11053578555583954, 0.03613263741135597, 0.06665237993001938, 0.041498906910419464, 0.05574490875005722, 0.006218926049768925, 0.04646284133195877, -0.025891143828630447, -0.020319348201155663, -0.034494515508413315, -0.085750512778759, 0.05315352976322174, 0.05979727953672409, -0.008787967264652252, -0.11523494124412537, 0.12481772154569626, 0.08210490643978119, -0.03814452141523361, 0.002438499126583338, -0.028620803728699684, 0.056590184569358826, 0.07527275383472443, 0.08843597769737244, 0.03888550400733948, -0.13068518042564392, -0.05371112748980522, -0.0950356125831604, -0.09627991914749146, -0.038039430975914, -0.1713099628686905, -0.08202231675386429, 0.049379780888557434, -0.03215588629245758, 0.026468550786376, -0.08293208479881287, -0.18273420631885529, -0.048105817288160324, -0.04392510652542114, 0.04194692149758339, -0.006722614169120789, -0.057115741074085236, 0.028652088716626167, -0.10500135272741318, 0.034006889909505844, -0.09216910600662231, -0.12985290586948395, -0.1884618103504181, -0.007837510667741299], [-0.15416394174098969, 0.05644937977194786, -0.09429941326379776, -0.03446231782436371, -0.015846051275730133, 0.010234402492642403, 0.023705750703811646, 0.023062847554683685, -0.048961371183395386, -0.0426068976521492, -0.08300945162773132, 0.1108764261007309, -0.04702157899737358, -0.11121038347482681, -0.14592020213603973, 0.03799844905734062, -0.042256880551576614, -0.001658158260397613, -0.024814089760184288, -0.10691316425800323, -0.02663494274020195, -0.030515609309077263, -0.16012896597385406, 0.016868218779563904, -0.028589142486453056, -0.15892231464385986, 0.06446573138237, -0.009994772262871265, 0.03587246686220169, -0.14167895913124084, 0.05607425048947334, 0.033242613077163696, -0.07278027385473251, 0.024300003424286842, -0.10312958806753159, -0.1484738290309906, 0.05959954857826233, -0.0571596585214138, -0.03484445810317993, -0.10577338188886642, -0.17948222160339355, -0.11247140914201736, -0.0626639723777771, -0.091505266726017, -0.030451234430074692, -0.15445967018604279, 0.010261023417115211, -0.1273067444562912, 0.04546019062399864, -0.068080835044384, -0.13771557807922363, -0.016257427632808685, -0.12380300462245941, -0.02983050048351288, -0.011184393428266048, 0.06466498970985413, 0.04672271013259888, -0.12954269349575043, -0.1273881494998932, -0.13630850613117218, -0.00011975265078945085, -0.07929685711860657, -0.03622624650597572, 0.020429762080311775], [-0.08379407227039337, 0.06440313905477524, -0.11714431643486023, -0.009578227996826172, -0.13174986839294434, -0.10414706915616989, -0.1187913715839386, 0.035314999520778656, -0.1401768922805786, -0.05533164367079735, 0.006212237756699324, -0.11704818904399872, -0.08684121072292328, 0.002234571846202016, -0.06250187754631042, -0.10578904300928116, 0.005880291108042002, -0.1559981107711792, -0.10730014741420746, -0.06798505783081055, -0.1314595341682434, -0.12524323165416718, -0.16512084007263184, 0.04692252725362778, -0.09327389299869537, -0.08037280291318893, -0.03079114481806755, -0.15932075679302216, -0.00980090256780386, -0.04249691218137741, -0.04702937230467796, -0.11335320770740509, -0.09825273603200912, -0.16316193342208862, 0.008045949041843414, -0.11917165666818619, -0.018096139654517174, -0.14639627933502197, 0.001823142170906067, 0.00969470851123333, -0.054922450333833694, -0.18141932785511017, -0.16610589623451233, 0.03389979526400566, 0.020284133031964302, -0.015765070915222168, -0.16777195036411285, -0.10861939191818237, -0.06249181926250458, -0.2202669382095337, -0.186990886926651, 0.012125910259783268, -0.08487429469823837, 0.1123649924993515, 0.04566950350999832, -0.05253995954990387, 0.034409210085868835, 0.046288471668958664, -0.033750973641872406, -0.003797258250415325, -0.0019079637713730335, -0.13013745844364166, -0.12205369025468826, -0.12603548169136047], [-0.17226222157478333, 0.44842636585235596, -0.5835260152816772, -0.0943463146686554, -0.0711740106344223, 0.09671903401613235, -0.11267657577991486, 0.1283295750617981, -0.15600605309009552, 0.1857670098543167, 0.15528889000415802, -0.0980471670627594, 0.08555382490158081, -0.09561166912317276, -0.1428033411502838, -0.009280877187848091, 0.07042653113603592, 0.10978613048791885, 0.038582682609558105, -0.0917048305273056, -0.15370619297027588, -0.3000807464122772, 0.13759909570217133, 0.20180685818195343, 0.07293285429477692, -0.052312277257442474, 0.06816758215427399, -0.030002200976014137, -0.038574252277612686, 0.03160202130675316, 0.09978582710027695, -0.03836092725396156, -0.06062832102179527, 0.23094381392002106, -0.15012669563293457, 0.10688913613557816, -0.08069312572479248, -0.02682008408010006, 0.09466919302940369, -0.2565983235836029, 0.7599016427993774, 0.20281782746315002, -0.05389493331313133, 0.0167402233928442, 0.6227561235427856, -0.046636052429676056, -0.19719550013542175, -0.5016242265701294, -0.02829255349934101, -0.023443181067705154, 0.014653712511062622, 0.0932762548327446, -0.08619460463523865, 0.09295400977134705, -0.062408823519945145, -0.10522732138633728, -0.08698533475399017, -0.020978201180696487, -0.015663757920265198, 0.10468896478414536, -0.09158076345920563, 0.1852249801158905, 0.20334701240062714, 0.501705527305603], [-0.2694820463657379, 0.42265230417251587, -0.4338206648826599, 0.11302699148654938, -0.1337849348783493, -0.009906874969601631, 0.05760158598423004, 0.1512092500925064, 0.007229795213788748, 0.11461792886257172, -0.02307162620127201, 0.05441732704639435, 0.1882725954055786, 0.075881727039814, -0.16767936944961548, -0.09285198897123337, 0.15247322618961334, -0.035437680780887604, -0.15096604824066162, 0.06392167508602142, -0.1734350323677063, -0.11143121868371964, 0.09858600050210953, 0.11152396351099014, -0.012038142420351505, -0.0036575186531990767, 0.04569236934185028, -0.0700576975941658, -0.1289539784193039, 0.0430038645863533, 0.21427878737449646, 0.03182748705148697, -0.09298575669527054, 0.013400829397141933, 0.04927653819322586, -0.0010784167097881436, -0.1557302474975586, -0.0411825031042099, -0.02483244240283966, -0.11211677640676498, 0.42837122082710266, 0.04419107362627983, -0.079595647752285, -0.044496145099401474, 0.33870232105255127, -0.0841335654258728, -0.020141806453466415, -0.28286436200141907, 0.07331530004739761, 0.13496799767017365, -0.05505261570215225, -0.014197215437889099, -0.037829771637916565, 0.09459272027015686, -0.03282942995429039, -0.08740043640136719, -0.059346940368413925, 0.04713544249534607, -0.0739390030503273, 0.10332565754652023, 0.06762183457612991, 0.12933479249477386, 0.13197965919971466, 0.3956531882286072], [-0.062172818928956985, -0.14973071217536926, -0.05648809298872948, -0.0911293774843216, -0.029208345338702202, -0.15210384130477905, -0.014194726943969727, 0.020060092210769653, -0.16208897531032562, -0.08723342418670654, 0.023491719737648964, -0.04820416867733002, -0.18319180607795715, -0.13539105653762817, -0.09749478101730347, -0.2102670669555664, -0.12178769707679749, -0.08150848001241684, -0.19542202353477478, -0.07731398940086365, -0.20538458228111267, -0.035344939678907394, -0.16237090528011322, -0.18035179376602173, -0.1327354907989502, -0.03498348221182823, -0.03688947856426239, -0.010331772267818451, -0.2092590183019638, -0.030726412311196327, -0.13593454658985138, -0.12772439420223236, -0.1703975647687912, -0.008827808313071728, -0.0015088628279045224, -0.10055730491876602, -0.048902176320552826, -0.1210748627781868, -0.0068349689245224, -0.0740351602435112, 0.14684456586837769, -0.05224457383155823, -0.13658931851387024, -0.06336555629968643, 0.18132971227169037, -0.22719649970531464, -0.01138326432555914, -0.1811933070421219, -0.07723294198513031, -0.10647270828485489, -0.17041032016277313, 0.015803156420588493, -0.0824543759226799, 0.12410299479961395, -0.1496310979127884, 0.0314255952835083, 0.0031021535396575928, -0.1705540269613266, -0.007495336700230837, -0.034151095896959305, -0.060713399201631546, 0.1542978733778, -0.052970435470342636, -0.14198294281959534], [-0.1728523224592209, 0.4352191984653473, -0.4835042655467987, 0.03913411498069763, -0.15716750919818878, -0.005754230078309774, 0.05958196520805359, 0.04050348326563835, 0.0695410743355751, 0.16251212358474731, -0.03102884627878666, -0.04875674843788147, 0.10323411226272583, -0.01268216222524643, -0.06568309664726257, 0.095578633248806, 0.19964495301246643, 0.04067555069923401, -0.5343694686889648, -0.10733827948570251, -0.15245160460472107, -0.3347816467285156, 0.06221934035420418, 0.08057312667369843, -0.1295636147260666, -0.017504414543509483, 0.11927633732557297, -0.029558924958109856, 0.004474492743611336, -0.0691777840256691, -0.00033450694172643125, 0.033937133848667145, -0.07636465132236481, 0.09157033264636993, 0.011887644417583942, 0.13326962292194366, -0.1517554670572281, -0.10714516788721085, -0.11711013317108154, -0.21989184617996216, 0.28034985065460205, 0.14597205817699432, -0.012679127044975758, -0.0783861055970192, 0.23313257098197937, -0.26986998319625854, -0.2200177013874054, -0.2284611314535141, -0.05146985501050949, 0.09382970631122589, 0.03705384209752083, 0.04375720024108887, 0.08746112883090973, -0.005302652716636658, -0.16548877954483032, -0.0031087100505828857, -0.041548267006874084, 0.10100969672203064, 0.03058161959052086, -0.0906803086400032, -0.1105085238814354, 0.1431988775730133, 0.031865961849689484, 0.18448108434677124], [-0.052922572940588, 0.13889749348163605, -0.1305859535932541, 0.10732808709144592, 0.053194560110569, -0.006513644941151142, -0.023998260498046875, -0.12900374829769135, 0.04916086047887802, 0.05335235968232155, -0.009180301800370216, -0.042678385972976685, -0.05069618672132492, -0.11236494779586792, -0.021092943847179413, -0.015458328649401665, -0.09499543905258179, -0.1899024397134781, 0.04469810426235199, -0.14504095911979675, 0.018772533163428307, 0.020334461703896523, -0.023156050592660904, -0.12956061959266663, -0.14462131261825562, 0.02619396150112152, -0.19281220436096191, -0.05704551190137863, -0.10483566671609879, -0.08502011001110077, -0.06821823120117188, -0.010221950709819794, -0.02344191074371338, -0.1148366630077362, 0.06530314683914185, 0.05387485399842262, -0.10084737837314606, -0.13226094841957092, 0.07972709834575653, 0.06548258662223816, -0.0474075973033905, -0.008857697248458862, 0.05140943452715874, 0.06707704812288284, -0.04048261046409607, -0.053322650492191315, 0.01739509589970112, -0.008728884160518646, -0.03010009229183197, -0.0903707817196846, -0.09625579416751862, -0.08906804025173187, -0.18150249123573303, 0.0466664582490921, 0.03147706761956215, -0.11894318461418152, -0.05089329555630684, -0.011922549456357956, -0.045156605541706085, -0.01736738160252571, 0.01607106253504753, 0.08612507581710815, 0.04893594607710838, -0.06942262500524521]], "fc2.bias": [-0.07642679661512375, -0.2638013958930969, -0.03535604849457741, 0.008812511339783669, -0.03432778641581535, -0.011075146496295929, 0.043128661811351776, 0.055491022765636444, -0.0044336263090372086, 0.014190145768225193, -0.15692837536334991, -0.010934790596365929, -0.05677071586251259, -0.009883071295917034, 0.012752109207212925, -0.08245240896940231, -0.2720376253128052, 0.035197097808122635, -0.09018543362617493, -0.1305733323097229, -0.02248532697558403, -0.11838724464178085, -0.2148129791021347, -0.14481639862060547, 0.010474616661667824, -0.15274330973625183, -0.09907624870538712, -0.10436107963323593, -0.021830080077052116, 0.12268456071615219, 0.044060565531253815, -0.056402139365673065, 0.02728540077805519, -0.04813405126333237, -0.05062124878168106, 0.023885827511548996, -0.04206910356879234, -0.013480736874043941, -0.09305013716220856, 0.0015664873644709587, -0.1357664316892624, 0.03143398091197014, -0.05415710434317589, 0.01713227666914463, -0.022776486352086067, -0.15586256980895996, -0.1832287609577179, -0.10605018585920334, -0.030690083280205727, -0.11120021343231201, -0.12033573538064957, -0.15233874320983887, -0.05150490626692772, 0.13063734769821167, -0.02433810569345951, -0.18048501014709473, 0.019566306844353676, -0.09074883162975311, -0.0356309674680233, 0.08477353304624557, 0.1282176524400711, -0.07831965386867523, 